{"learner":{"attributes":{"best_iteration":"99","best_ntree_limit":"100","scikit_learn":"{\"use_label_encoder\": false, \"n_estimators\": 100, \"objective\": \"binary:logistic\", \"max_depth\": 5, \"max_leaves\": null, \"max_bin\": null, \"grow_policy\": null, \"learning_rate\": null, \"verbosity\": null, \"booster\": null, \"tree_method\": \"gpu_hist\", \"gamma\": 0.5, \"min_child_weight\": 1, \"max_delta_step\": null, \"subsample\": 0.8, \"sampling_method\": null, \"colsample_bytree\": 0.6, \"colsample_bylevel\": null, \"colsample_bynode\": null, \"reg_alpha\": null, \"reg_lambda\": null, \"scale_pos_weight\": null, \"base_score\": null, \"missing\": NaN, \"num_parallel_tree\": null, \"random_state\": null, \"n_jobs\": null, \"monotone_constraints\": null, \"interaction_constraints\": null, \"importance_type\": null, \"gpu_id\": null, \"validate_parameters\": null, \"predictor\": null, \"enable_categorical\": false, \"max_cat_to_onehot\": null, \"eval_metric\": \"mlogloss\", \"early_stopping_rounds\": null, \"callbacks\": null, \"classes_\": [0, 1], \"n_classes_\": 2, \"_estimator_type\": \"classifier\"}"},"feature_names":["MentalHealth","BMI","PhysicalHealth","SleepTime","Smoking","AlcoholDrinking","Stroke","DiffWalking","PhysicalActivity","Asthma","KidneyDisease","SkinCancer","Sex","AgeCategory","Race","Diabetic","GenHealth"],"feature_types":["float","float","float","float","float","float","float","float","float","float","float","float","float","float","float","float","float"],"gradient_booster":{"model":{"gbtree_model_param":{"num_parallel_tree":"1","num_trees":"100","size_leaf_vector":"0"},"tree_info":[0,0,0,0,0,0,0,0,0,0,0,0,0,0,0,0,0,0,0,0,0,0,0,0,0,0,0,0,0,0,0,0,0,0,0,0,0,0,0,0,0,0,0,0,0,0,0,0,0,0,0,0,0,0,0,0,0,0,0,0,0,0,0,0,0,0,0,0,0,0,0,0,0,0,0,0,0,0,0,0,0,0,0,0,0,0,0,0,0,0,0,0,0,0,0,0,0,0,0,0],"trees":[{"base_weights":[-2.1382514E-3,5.910717E-1,-8.1340015E-1,1.0791146E0,1.9656514E-1,-9.5510757E-1,3.1505346E-1,9.4488406E-1,1.6334884E0,8.520497E-2,1.3535812E0,-1.0084505E0,8.0149275E-1,1.9154795E-1,1.4343152E0,7.4598414E-1,1.2548674E0,5.1828015E-1,1.5683299E0,-1.04452185E-1,7.280412E-1,1.2575887E0,4.546003E-1,-8.1732327E-1,-1.3648053E0,6.8550736E-1,1.0964756E0,-3.648294E-1,3.0595577E-1,1.3624103E0,1.7792798E0,3.3201164E-1,1.8344744E-1,4.4994596E-1,3.3790672E-1,4.7407156E-1,3.5542536E-1,-6.746716E-2,2.0660035E-1,1.9371887E-1,3.8880983E-1,3.6278996E-1,4.293161E-1,-2.7373782E-1,-2.1656651E-2,-4.2875016E-1,-2.030284E-1,1.8926795E-1,3.900727E-1,3.1157023E-1,4.0408272E-1,-4.823594E-1,-8.360845E-2,7.573977E-2,3.00992E-1,4.2468956E-1,2.4288563E-1,5.5162007E-1,1.817206E-1],"categories":[],"categories_nodes":[],"categories_segments":[],"categories_sizes":[],"default_left":[0,0,0,0,0,0,0,0,0,0,0,0,0,0,0,0,0,0,0,0,0,0,0,0,0,0,0,0,0,0,0,0,0,0,0,0,0,0,0,0,0,0,0,0,0,0,0,0,0,0,0,0,0,0,0,0,0,0,0],"id":0,"left_children":[1,3,5,7,9,11,13,15,17,19,21,23,25,27,29,31,33,-1,35,37,39,41,-1,43,45,47,49,51,53,55,57,-1,-1,-1,-1,-1,-1,-1,-1,-1,-1,-1,-1,-1,-1,-1,-1,-1,-1,-1,-1,-1,-1,-1,-1,-1,-1,-1,-1],"loss_changes":[2.0640643E4,4.7697393E3,2.8971475E3,8.2252246E2,1.7652258E3,1.5089111E3,2.792128E2,5.488955E2,1.052002E1,1.5239791E3,1.6771484E1,1.0627969E3,1.549646E1,1.1609254E2,2.5559998E0,2.629834E2,1.0798779E2,0E0,4.000244E0,9.221961E2,1.3229993E2,4.6418457E0,0E0,7.2087646E2,2.4045605E2,1.071347E1,5.208893E-1,3.2873943E1,5.6139877E1,3.8674316E0,1.0744476E0,0E0,0E0,0E0,0E0,0E0,0E0,0E0,0E0,0E0,0E0,0E0,0E0,0E0,0E0,0E0,0E0,0E0,0E0,0E0,0E0,0E0,0E0,0E0,0E0,0E0,0E0,0E0,0E0],"parents":[2147483647,0,0,1,1,2,2,3,3,4,4,5,5,6,6,7,7,8,8,9,9,10,10,11,11,12,12,13,13,14,14,15,15,16,16,18,18,19,19,20,20,21,21,23,23,24,24,25,25,26,26,27,27,28,28,29,29,30,30],"right_children":[2,4,6,8,10,12,14,16,18,20,22,24,26,28,30,32,34,-1,36,38,40,42,-1,44,46,48,50,52,54,56,58,-1,-1,-1,-1,-1,-1,-1,-1,-1,-1,-1,-1,-1,-1,-1,-1,-1,-1,-1,-1,-1,-1,-1,-1,-1,-1,-1,-1],"split_conditions":[3E0,2E0,2E0,1E0,1E0,1E0,1E0,3E0,1E0,3E0,2E0,4E0,1E0,3E0,1E0,1E0,1E0,5.1828015E-1,4.324E1,1E0,1E0,1E0,4.546003E-1,1E0,1E0,1E0,3.33E1,2.197E1,1E0,9E0,8E0,3.3201164E-1,1.8344744E-1,4.4994596E-1,3.3790672E-1,4.7407156E-1,3.5542536E-1,-6.746716E-2,2.0660035E-1,1.9371887E-1,3.8880983E-1,3.6278996E-1,4.293161E-1,-2.7373782E-1,-2.1656651E-2,-4.2875016E-1,-2.030284E-1,1.8926795E-1,3.900727E-1,3.1157023E-1,4.0408272E-1,-4.823594E-1,-8.360845E-2,7.573977E-2,3.00992E-1,4.2468956E-1,2.4288563E-1,5.5162007E-1,1.817206E-1],"split_indices":[16,16,15,6,6,6,6,15,16,15,15,16,2,15,10,16,16,0,1,11,10,11,0,11,11,10,1,1,10,3,2,0,0,0,0,0,0,0,0,0,0,0,0,0,0,0,0,0,0,0,0,0,0,0,0,0,0,0,0],"split_type":[0,0,0,0,0,0,0,0,0,0,0,0,0,0,0,0,0,0,0,0,0,0,0,0,0,0,0,0,0,0,0,0,0,0,0,0,0,0,0,0,0,0,0,0,0,0,0,0,0,0,0,0,0,0,0,0,0,0,0],"sum_hessian":[4.2887766E4,2.477332E4,1.8114447E4,1.1073095E4,1.3700225E4,1.6093618E4,2.020829E3,8.916779E3,2.1563154E3,1.249836E4,1.2018651E3,1.5619718E4,4.739009E2,1.8210549E3,1.997741E2,5.433681E3,3.4830986E3,8.717226E2,1.2845928E3,9.651652E3,2.8467073E3,7.597599E2,4.4210526E2,1.0168981E4,5.4507363E3,3.425402E2,1.3136073E2,3.1022226E2,1.5108326E3,1.6941122E2,3.0362873E1,1.4737432E3,3.959938E3,1.1948884E3,2.2882102E3,1.2428866E3,4.1706142E1,8.379855E3,1.271797E3,2.488254E3,3.5845337E2,6.005506E2,1.5920929E2,9.017441E3,1.1515397E3,4.983488E3,4.6724817E2,3.1645224E2,2.6087952E1,1.1087322E2,2.0487507E1,1.8958551E1,2.912637E2,1.4044661E3,1.06366646E2,1.5310936E2,1.6301859E1,2.8359325E1,2.003549E0],"tree_param":{"num_deleted":"0","num_feature":"17","num_nodes":"59","size_leaf_vector":"0"}},{"base_weights":[4.2835805E-3,-1.0668784E0,4.7301263E-1,-1.2105999E0,1.7677799E-1,7.6504683E-1,-4.2817112E-2,-1.2531953E0,6.643623E-1,-2.0761259E-2,1.0858711E0,5.106841E-1,9.7508526E-1,-4.7374344E-1,3.8991776E-1,-1.4377706E0,-8.9451003E-1,4.0642908E-1,5.5621344E-1,-3.0540487E-1,5.183453E-1,1.269215E0,9.31457E-1,8.060884E-1,2.4285036E-1,1.1197978E0,8.51205E-1,-8.346205E-1,-3.1767222E-1,2.5055468E-1,6.7238843E-1,-4.4022572E-1,-2.6659834E-1,-1.4655103E-1,-3.5995045E-1,1.227551E-1,2.823784E-1,-2.2507058E-1,-1.8010564E-2,2.0318086E-1,1.618186E-2,-2.0693488E-2,3.8975206E-1,-4.7280877E-3,2.8971505E-1,2.1471064E-1,3.5396814E-1,-6.665992E-3,1.384052E-1,2.9978E-1,3.5959637E-1,2.0849957E-1,2.9569557E-1,-3.0962107E-1,-1.6042614E-1,-2.0553002E-1,-5.192002E-2,1.153941E-1,-5.613657E-2,1.5771385E-1,2.5554633E-1],"categories":[],"categories_nodes":[],"categories_segments":[],"categories_sizes":[],"default_left":[0,0,0,0,0,0,0,0,0,0,0,0,0,0,0,0,0,0,0,0,0,0,0,0,0,0,0,0,0,0,0,0,0,0,0,0,0,0,0,0,0,0,0,0,0,0,0,0,0,0,0,0,0,0,0,0,0,0,0,0,0],"id":1,"left_children":[1,3,5,7,9,11,13,15,17,19,21,23,25,27,29,31,33,-1,35,37,39,41,43,45,47,49,51,53,55,57,59,-1,-1,-1,-1,-1,-1,-1,-1,-1,-1,-1,-1,-1,-1,-1,-1,-1,-1,-1,-1,-1,-1,-1,-1,-1,-1,-1,-1,-1,-1],"loss_changes":[2.109737E4,2.2863662E3,4.403111E3,9.1652344E2,2.3812169E2,9.966006E2,1.9706814E3,7.4094336E2,1.831179E1,1.6744765E2,5.5187073E0,6.67812E2,1.8228125E2,2.9796277E2,2.0740729E2,1.19177734E2,4.7192676E2,0E0,1.2208893E1,7.789659E1,2.7793457E1,4.317169E0,4.306595E0,1.3479126E2,2.565635E2,4.35791E1,1.1505664E2,9.406299E1,1.9636447E2,2.0739171E2,4.5384644E1,0E0,0E0,0E0,0E0,0E0,0E0,0E0,0E0,0E0,0E0,0E0,0E0,0E0,0E0,0E0,0E0,0E0,0E0,0E0,0E0,0E0,0E0,0E0,0E0,0E0,0E0,0E0,0E0,0E0,0E0],"parents":[2147483647,0,0,1,1,2,2,3,3,4,4,5,5,6,6,7,7,8,8,9,9,10,10,11,11,12,12,13,13,14,14,15,15,16,16,18,18,19,19,20,20,21,21,22,22,23,23,24,24,25,25,26,26,27,27,28,28,29,29,30,30],"right_children":[2,4,6,8,10,12,14,16,18,20,22,24,26,28,30,32,34,-1,36,38,40,42,44,46,48,50,52,54,56,58,60,-1,-1,-1,-1,-1,-1,-1,-1,-1,-1,-1,-1,-1,-1,-1,-1,-1,-1,-1,-1,-1,-1,-1,-1,-1,-1,-1,-1,-1,-1],"split_conditions":[7E0,1E0,3E0,1E0,1E0,1E1,1E1,5E0,1E0,2E0,1E0,2E0,2E0,2.509E1,1.2E1,1.4E1,3E0,4.0642908E-1,1E0,1E0,2E0,9E0,2.216E1,1E0,1E0,1E0,1E0,1E0,8E0,4E0,1E0,-4.4022572E-1,-2.6659834E-1,-1.4655103E-1,-3.5995045E-1,1.227551E-1,2.823784E-1,-2.2507058E-1,-1.8010564E-2,2.0318086E-1,1.618186E-2,-2.0693488E-2,3.8975206E-1,-4.7280877E-3,2.8971505E-1,2.1471064E-1,3.5396814E-1,-6.665992E-3,1.384052E-1,2.9978E-1,3.5959637E-1,2.0849957E-1,2.9569557E-1,-3.0962107E-1,-1.6042614E-1,-2.0553002E-1,-5.192002E-2,1.153941E-1,-5.613657E-2,1.5771385E-1,2.5554633E-1],"split_indices":[13,7,16,6,6,13,13,13,16,15,16,16,16,1,13,2,16,0,15,4,16,2,1,6,4,4,4,4,13,16,4,0,0,0,0,0,0,0,0,0,0,0,0,0,0,0,0,0,0,0,0,0,0,0,0,0,0,0,0,0,0],"split_type":[0,0,0,0,0,0,0,0,0,0,0,0,0,0,0,0,0,0,0,0,0,0,0,0,0,0,0,0,0,0,0,0,0,0,0,0,0,0,0,0,0,0,0,0,0,0,0,0,0,0,0,0,0,0,0,0,0,0,0,0,0],"sum_hessian":[4.2017535E4,1.2789373E4,2.9228162E4,1.1464518E4,1.3248552E3,1.8662186E4,1.0565977E4,1.1210177E4,2.5434122E2,1.0891649E3,2.3569034E2,8.442048E3,1.0220137E4,5.294004E3,5.271973E3,7.3994795E3,3.8106973E3,3.2884712E1,2.214565E2,7.13092E2,3.760729E2,1.0445091E2,1.3123943E2,4.013449E3,4.428599E3,4.7100186E3,5.510118E3,1.5969935E3,3.6970105E3,3.5315115E3,1.7404614E3,7.0188354E3,3.8064383E2,1.6367815E3,2.1739158E3,1.617538E2,5.970271E1,2.527764E2,4.6031558E2,2.7984787E2,9.6225044E1,2.2586486E0,1.0219227E2,4.5999513E0,1.2663947E2,3.2343071E3,7.7914185E2,2.0014585E3,2.4271409E3,1.8681912E3,2.8418274E3,2.5516567E3,2.9584612E3,9.614663E2,6.3552716E2,1.043033E3,2.6539775E3,2.7033877E3,8.281238E2,9.598059E2,7.806555E2],"tree_param":{"num_deleted":"0","num_feature":"17","num_nodes":"61","size_leaf_vector":"0"}},{"base_weights":[7.795558E-5,-1.966617E-1,6.339438E-1,-3.2666185E-1,3.7046027E-1,5.50685E-1,1.0498483E0,-5.4691166E-1,-4.5901377E-2,1.3545981E-1,5.834465E-1,4.4089037E-1,7.529398E-1,1.0669718E0,8.9277065E-1,-5.7796395E-1,4.8008105E-1,7.127508E-2,-2.9405555E-1,5.4132458E-2,7.9476583E-1,6.696778E-1,2.3560736E-1,2.957001E-1,5.340384E-1,5.81996E-1,8.622721E-1,1.0009907E0,1.1124878E0,6.5210897E-1,1.0045286E0,-1.9069812E-1,-2.6181728E-2,-3.38423E-3,1.778731E-1,4.2492058E-2,-1.01629E-1,-1.3143472E-1,2.9440953E-3,-4.0544537E-3,1.535087E-1,-5.333198E-2,2.4814194E-1,1.03922956E-1,2.1204685E-1,1.6072918E-2,1.5838808E-1,6.84472E-2,1.8230034E-1,1.5114823E-1,2.0723629E-1,1.3215287E-1,1.9677992E-1,2.6622218E-1,1.16118275E-1,-8.35132E-2,3.0190083E-1,1.3657777E-1,3.3476716E-1,-1.9519567E-1,2.24575E-1,3.0666482E-1,2.6323723E-2],"categories":[],"categories_nodes":[],"categories_segments":[],"categories_sizes":[],"default_left":[0,0,0,0,0,0,0,0,0,0,0,0,0,0,0,0,0,0,0,0,0,0,0,0,0,0,0,0,0,0,0,0,0,0,0,0,0,0,0,0,0,0,0,0,0,0,0,0,0,0,0,0,0,0,0,0,0,0,0,0,0,0,0],"id":2,"left_children":[1,3,5,7,9,11,13,15,17,19,21,23,25,27,29,31,33,35,37,39,41,43,45,47,49,51,53,55,57,59,61,-1,-1,-1,-1,-1,-1,-1,-1,-1,-1,-1,-1,-1,-1,-1,-1,-1,-1,-1,-1,-1,-1,-1,-1,-1,-1,-1,-1,-1,-1,-1,-1],"loss_changes":[5.0241846E3,2.2668481E3,3.2986548E2,1.5466787E3,2.8691284E2,1.7627979E2,3.3256836E0,4.4727344E2,3.1978506E2,1.4619724E2,9.005182E1,6.958972E1,5.1771362E1,3.1784668E0,3.714859E0,3.8513623E2,2.2843277E1,2.1558997E2,1.5441473E2,7.519006E1,9.574036E0,2.868811E1,3.1849388E1,4.2378983E1,1.4523621E1,1.1156647E1,2.0007568E1,4.3380737E0,1.3631592E0,7.3209553E0,1.6794434E0,0E0,0E0,0E0,0E0,0E0,0E0,0E0,0E0,0E0,0E0,0E0,0E0,0E0,0E0,0E0,0E0,0E0,0E0,0E0,0E0,0E0,0E0,0E0,0E0,0E0,0E0,0E0,0E0,0E0,0E0,0E0,0E0],"parents":[2147483647,0,0,1,1,2,2,3,3,4,4,5,5,6,6,7,7,8,8,9,9,10,10,11,11,12,12,13,13,14,14,15,15,16,16,17,17,18,18,19,19,20,20,21,21,22,22,23,23,24,24,25,25,26,26,27,27,28,28,29,29,30,30],"right_children":[2,4,6,8,10,12,14,16,18,20,22,24,26,28,30,32,34,36,38,40,42,44,46,48,50,52,54,56,58,60,62,-1,-1,-1,-1,-1,-1,-1,-1,-1,-1,-1,-1,-1,-1,-1,-1,-1,-1,-1,-1,-1,-1,-1,-1,-1,-1,-1,-1,-1,-1,-1,-1],"split_conditions":[1E0,2E0,1E0,1E0,1E0,3E0,4E0,1E0,1E0,1E0,1E0,1E0,1E0,1E0,1E1,1E0,2.4E1,1E0,3E0,1E0,2.273E1,3E0,2E0,1E0,1E0,2E0,4.573E1,3E0,1.848E1,2.439E1,5.453E1,-1.9069812E-1,-2.6181728E-2,-3.38423E-3,1.778731E-1,4.2492058E-2,-1.01629E-1,-1.3143472E-1,2.9440953E-3,-4.0544537E-3,1.535087E-1,-5.333198E-2,2.4814194E-1,1.03922956E-1,2.1204685E-1,1.6072918E-2,1.5838808E-1,6.84472E-2,1.8230034E-1,1.5114823E-1,2.0723629E-1,1.3215287E-1,1.9677992E-1,2.6622218E-1,1.16118275E-1,-8.35132E-2,3.0190083E-1,1.3657777E-1,3.3476716E-1,-1.9519567E-1,2.24575E-1,3.0666482E-1,2.6323723E-2],"split_indices":[7,15,10,4,4,15,14,10,0,10,14,4,4,15,2,11,1,14,2,11,1,15,2,11,11,2,1,3,1,1,1,0,0,0,0,0,0,0,0,0,0,0,0,0,0,0,0,0,0,0,0,0,0,0,0,0,0,0,0,0,0,0,0],"split_type":[0,0,0,0,0,0,0,0,0,0,0,0,0,0,0,0,0,0,0,0,0,0,0,0,0,0,0,0,0,0,0,0,0,0,0,0,0,0,0,0,0,0,0,0,0,0,0,0,0,0,0,0,0,0,0,0,0,0,0,0,0,0,0],"sum_hessian":[4.028606E4,3.074431E4,9.541747E3,2.501142E4,5.73289E3,7.9521514E3,1.5895958E3,1.4015585E4,1.0995835E4,2.726365E3,3.0065254E3,5.1562476E3,2.795904E3,1.4281202E3,1.614755E2,1.3604669E4,4.1091534E2,7.469506E3,3.5263293E3,2.427952E3,2.9841296E2,2.4085156E3,5.9800977E2,2.0168105E3,3.1394368E3,1.0931146E3,1.7027894E3,5.9238257E2,8.357377E2,5.337399E1,1.081015E2,1.2173045E4,1.4316244E3,7.69042E1,3.3401114E2,6.3759995E3,1.0935062E3,2.391914E3,1.1344152E3,2.1160764E3,3.1187564E2,9.468883E0,2.889441E2,2.4929182E2,2.1592239E3,3.6927017E2,2.2873958E2,1.659295E3,3.5751547E2,2.6356663E3,5.0377063E2,3.7756372E2,7.1555084E2,1.6164252E3,8.636426E1,2.2522185E0,5.901304E2,4.9989047E0,8.307388E2,3.2839658E0,5.0090023E1,1.0594255E2,2.158952E0],"tree_param":{"num_deleted":"0","num_feature":"17","num_nodes":"63","size_leaf_vector":"0"}},{"base_weights":[-4.6132354E-5,-1.4955877E-1,4.8924932E-1,1.3041024E-1,-4.891665E-1,6.9757724E-1,3.1594762E-1,7.535413E-2,9.421888E-1,-5.5679303E-1,6.3354045E-1,6.370774E-1,9.689884E-1,2.2126815E-1,7.615969E-1,1.7035663E-1,-3.6033958E-1,9.023482E-1,3.5807657E-1,-5.903434E-1,2.3628946E-1,5.907578E-1,9.245622E-1,7.050704E-1,3.5639533E-1,8.539684E-1,1.0308849E0,1.3169146E-1,7.184001E-1,7.04054E-1,2.8980374E-1,1.3595695E-3,9.811741E-2,-1.5272906E-1,3.5606086E-2,2.0979463E-1,2.7664965E-1,-1.9790377E-1,-9.090247E-2,2.4500981E-2,1.4365749E-1,1.6199374E-1,2.3315616E-1,2.885007E-1,5.8158733E-2,1.9992818E-1,2.8168857E-1,8.4643126E-2,2.2312658E-1,2.4004446E-1,3.021089E-1,2.7526572E-1,3.2184082E-1,1.1208354E-2,7.836254E-2,1.7229539E-1,2.3285829E-1,1.9536796E-1,2.655313E-1],"categories":[],"categories_nodes":[],"categories_segments":[],"categories_sizes":[],"default_left":[0,0,0,0,0,0,0,0,0,0,0,0,0,0,0,0,0,0,0,0,0,0,0,0,0,0,0,0,0,0,0,0,0,0,0,0,0,0,0,0,0,0,0,0,0,0,0,0,0,0,0,0,0,0,0,0,0,0,0],"id":3,"left_children":[1,3,5,7,9,11,13,15,17,19,21,23,25,27,29,31,33,35,-1,37,39,41,43,45,47,49,51,53,55,57,-1,-1,-1,-1,-1,-1,-1,-1,-1,-1,-1,-1,-1,-1,-1,-1,-1,-1,-1,-1,-1,-1,-1,-1,-1,-1,-1,-1,-1],"loss_changes":[2.852875E3,2.8400874E3,3.2930713E2,7.317097E2,1.0251536E3,6.742786E1,2.10139E2,6.347873E2,9.338013E0,3.3889697E2,9.007324E0,6.4474E1,4.4835815E0,1.8303412E2,9.588348E0,3.2715143E2,1.9569586E2,2.9831543E0,0E0,2.4315137E2,1.9367807E1,5.939392E0,2.4320526E0,2.4041016E1,1.8870445E1,1.413681E0,1.3197021E0,4.25765E1,4.780609E0,5.974243E0,0E0,0E0,0E0,0E0,0E0,0E0,0E0,0E0,0E0,0E0,0E0,0E0,0E0,0E0,0E0,0E0,0E0,0E0,0E0,0E0,0E0,0E0,0E0,0E0,0E0,0E0,0E0,0E0,0E0],"parents":[2147483647,0,0,1,1,2,2,3,3,4,4,5,5,6,6,7,7,8,8,9,9,10,10,11,11,12,12,13,13,14,14,15,15,16,16,17,17,19,19,20,20,21,21,22,22,23,23,24,24,25,25,26,26,27,27,28,28,29,29],"right_children":[2,4,6,8,10,12,14,16,18,20,22,24,26,28,30,32,34,36,-1,38,40,42,44,46,48,50,52,54,56,58,-1,-1,-1,-1,-1,-1,-1,-1,-1,-1,-1,-1,-1,-1,-1,-1,-1,-1,-1,-1,-1,-1,-1,-1,-1,-1,-1,-1,-1],"split_conditions":[1E0,1E0,1E0,1E0,1E0,1E0,1E0,1E0,2E0,1E0,1E0,1E0,5E0,1E0,1E0,1E0,2E0,2.273E1,3.5807657E-1,3E0,3E0,9E0,2.2E1,1E0,1E0,1E0,2.616E1,1.4E1,4E0,2.1E1,2.8980374E-1,1.3595695E-3,9.811741E-2,-1.5272906E-1,3.5606086E-2,2.0979463E-1,2.7664965E-1,-1.9790377E-1,-9.090247E-2,2.4500981E-2,1.4365749E-1,1.6199374E-1,2.3315616E-1,2.885007E-1,5.8158733E-2,1.9992818E-1,2.8168857E-1,8.4643126E-2,2.2312658E-1,2.4004446E-1,3.021089E-1,2.7526572E-1,3.2184082E-1,1.1208354E-2,7.836254E-2,1.7229539E-1,2.3285829E-1,1.9536796E-1,2.655313E-1],"split_indices":[7,12,12,6,6,6,6,14,14,10,10,14,2,10,10,4,2,1,0,2,2,2,0,10,10,11,1,2,2,0,0,0,0,0,0,0,0,0,0,0,0,0,0,0,0,0,0,0,0,0,0,0,0,0,0,0,0,0,0],"split_type":[0,0,0,0,0,0,0,0,0,0,0,0,0,0,0,0,0,0,0,0,0,0,0,0,0,0,0,0,0,0,0,0,0,0,0,0,0,0,0,0,0,0,0,0,0,0,0,0,0,0,0,0,0,0,0,0,0,0,0],"sum_hessian":[3.8995223E4,2.9868947E4,9.126275E3,1.6372361E4,1.3496585E4,4.1429565E3,4.9833184E3,1.5333511E4,1.0388503E3,1.2730277E4,7.663072E2,3.3905266E3,7.524298E2,4.1113477E3,8.7197095E2,1.2589085E4,2.744426E3,9.007011E2,1.3814923E2,1.2213841E4,5.1643677E2,6.7073364E2,9.557355E1,2.7281436E3,6.6238306E2,2.6842392E2,4.840059E2,3.4847126E3,6.266349E2,6.838982E2,1.8807275E2,6.116988E3,6.472097E3,2.0940693E3,6.503567E2,8.332297E1,8.173782E2,9.838464E3,2.3753772E3,3.1621194E2,2.0022482E2,5.3021326E2,1.4052043E2,9.065383E1,4.9197145E0,2.3446191E3,3.835243E2,5.572871E2,1.05095985E2,2.0320099E2,6.522294E1,1.3686223E2,3.4714368E2,2.0169841E3,1.4677286E3,1.8252736E2,4.441075E2,5.329802E2,1.50918E2],"tree_param":{"num_deleted":"0","num_feature":"17","num_nodes":"59","size_leaf_vector":"0"}},{"base_weights":[1.1039996E-3,2.4056378E-1,-3.2579958E-1,4.4592324E-1,9.1359176E-2,-3.9453754E-1,1.7222838E-1,6.4848083E-1,3.5954276E-1,1.8692237E-1,-1.1248717E-1,-2.7000457E-1,-6.540822E-1,8.7445724E-1,1.4577654E-1,5.643152E-1,7.6256657E-1,4.770879E-1,1.972961E-1,1.5661539E-1,6.073067E-1,-2.8652748E-1,4.4386942E-2,-1.7514049E-1,-5.2465546E-1,-8.983657E-1,-5.79674E-1,6.3369876E-1,1.0647693E0,2.0872475E-1,-1.7984782E-1,1.5495665E-1,2.4332587E-1,2.4793881E-1,1.9548541E-1,1.1380337E-1,1.6440205E-1,2.778766E-2,1.207423E-1,2.8995099E-2,9.74005E-2,-3.184588E-1,1.8858732E-1,-1.1352925E-1,1.0785295E-2,-9.099884E-3,1.0297463E-1,-6.1425786E-2,4.65344E-2,-1.7484862E-1,5.0066173E-2,-3.0293357E-1,-1.956493E-1,-1.791732E-1,1.5766485E-1,3.1397003E-1,-7.699348E-2,2.3740725E-1,4.3884224E-1,2.8299073E-2,1.04436934E-1,-8.604825E-2,2.0947951E-1],"categories":[],"categories_nodes":[],"categories_segments":[],"categories_sizes":[],"default_left":[0,0,0,0,0,0,0,0,0,0,0,0,0,0,0,0,0,0,0,0,0,0,0,0,0,0,0,0,0,0,0,0,0,0,0,0,0,0,0,0,0,0,0,0,0,0,0,0,0,0,0,0,0,0,0,0,0,0,0,0,0,0,0],"id":4,"left_children":[1,3,5,7,9,11,13,15,17,19,21,23,25,27,29,31,33,35,37,39,41,43,45,47,49,51,53,55,57,59,61,-1,-1,-1,-1,-1,-1,-1,-1,-1,-1,-1,-1,-1,-1,-1,-1,-1,-1,-1,-1,-1,-1,-1,-1,-1,-1,-1,-1,-1,-1,-1,-1],"loss_changes":[2.9659548E3,6.7005005E2,5.484713E2,1.6078552E2,2.4679169E2,4.5481738E2,3.5974644E1,2.5975098E1,1.2298584E2,1.09791626E2,1.1041883E2,2.2974884E2,8.243042E1,2.5487862E0,3.845406E1,1.8290222E1,7.7176514E0,2.5728882E1,5.82274E1,8.1053635E1,2.1288452E1,5.6832123E1,4.752309E1,6.783844E1,1.0396332E2,2.8518494E1,6.8297E1,1.2594059E1,2.9586182E0,2.5019798E1,2.8772781E1,0E0,0E0,0E0,0E0,0E0,0E0,0E0,0E0,0E0,0E0,0E0,0E0,0E0,0E0,0E0,0E0,0E0,0E0,0E0,0E0,0E0,0E0,0E0,0E0,0E0,0E0,0E0,0E0,0E0,0E0,0E0,0E0],"parents":[2147483647,0,0,1,1,2,2,3,3,4,4,5,5,6,6,7,7,8,8,9,9,10,10,11,11,12,12,13,13,14,14,15,15,16,16,17,17,18,18,19,19,20,20,21,21,22,22,23,23,24,24,25,25,26,26,27,27,28,28,29,29,30,30],"right_children":[2,4,6,8,10,12,14,16,18,20,22,24,26,28,30,32,34,36,38,40,42,44,46,48,50,52,54,56,58,60,62,-1,-1,-1,-1,-1,-1,-1,-1,-1,-1,-1,-1,-1,-1,-1,-1,-1,-1,-1,-1,-1,-1,-1,-1,-1,-1,-1,-1,-1,-1,-1,-1],"split_conditions":[3E0,2E0,2E0,1E0,1E0,4E0,5E0,3E0,2E0,1E0,1E0,2E0,2.282E1,1E0,2E0,1E0,1.3E1,1E0,3E0,2E0,1.992E1,2E0,3E0,9E0,1E0,1E0,1E0,3.029E1,3.448E1,1E0,1E0,1.5495665E-1,2.4332587E-1,2.4793881E-1,1.9548541E-1,1.1380337E-1,1.6440205E-1,2.778766E-2,1.207423E-1,2.8995099E-2,9.74005E-2,-3.184588E-1,1.8858732E-1,-1.1352925E-1,1.0785295E-2,-9.099884E-3,1.0297463E-1,-6.1425786E-2,4.65344E-2,-1.7484862E-1,5.0066173E-2,-3.0293357E-1,-1.956493E-1,-1.791732E-1,1.5766485E-1,3.1397003E-1,-7.699348E-2,2.3740725E-1,4.3884224E-1,2.8299073E-2,1.04436934E-1,-8.604825E-2,2.0947951E-1],"split_indices":[16,16,15,16,0,16,3,15,0,10,4,0,1,4,0,10,0,4,15,15,1,15,15,3,7,4,10,1,1,4,10,0,0,0,0,0,0,0,0,0,0,0,0,0,0,0,0,0,0,0,0,0,0,0,0,0,0,0,0,0,0,0,0],"split_type":[0,0,0,0,0,0,0,0,0,0,0,0,0,0,0,0,0,0,0,0,0,0,0,0,0,0,0,0,0,0,0,0,0,0,0,0,0,0,0,0,0,0,0,0,0,0,0,0,0,0,0,0,0,0,0,0,0,0,0,0,0,0,0],"sum_hessian":[3.788692E4,2.1868395E4,1.6018529E4,9.201632E3,1.2666763E4,1.4075968E4,1.9425613E3,2.7489607E3,6.4526714E3,8.62394E3,4.0428215E3,9.513367E3,4.5626E3,6.935315E1,1.8732081E3,1.5853385E3,1.1636222E3,3.7406726E3,2.7119988E3,8.0452993E3,5.786414E2,1.9161582E3,2.1266633E3,6.9325137E3,2.5808535E3,1.0626913E3,3.499909E3,3.253006E1,3.6823093E1,1.570052E3,3.031562E2,1.3307086E3,2.5462994E2,7.3429004E2,4.2933215E2,1.5755438E3,2.165129E3,1.796815E3,9.1518396E2,5.930676E3,2.1146235E3,6.6828723E0,5.7195856E2,1.4910496E3,4.251086E2,1.7020293E3,4.246341E2,6.362412E3,5.7010175E2,2.3807407E3,2.0011293E2,7.2948016E2,3.3321115E2,3.4455933E3,5.4315624E1,2.2104397E1,1.0425662E1,2.3600258E1,1.3222836E1,8.632882E2,7.0676373E2,2.7083408E2,3.2322105E1],"tree_param":{"num_deleted":"0","num_feature":"17","num_nodes":"63","size_leaf_vector":"0"}},{"base_weights":[-5.7020895E-3,-6.086059E-1,3.608755E-1,-8.600255E-1,-2.4024563E-1,2.3162375E-1,5.6960803E-1,-8.889921E-1,2.0642371E-1,-3.0071732E-1,5.500807E-1,1.8996726E-1,6.5036005E-1,4.8131624E-1,6.3857543E-1,-1.0138913E0,-7.015201E-1,5.32066E-3,4.7353584E-1,-4.353177E-1,-5.4695066E-2,4.477716E-1,6.8696195E-1,2.4290375E-2,2.6322728E-1,5.580488E-1,7.1830267E-1,3.9529935E-1,5.5074155E-1,5.966298E-1,7.341422E-1,-3.1748706E-1,-2.415612E-1,-2.3694937E-1,-3.9088793E-2,2.5459546E-1,-4.0052578E-2,1.7477247E-1,1.0770476E-1,-1.6960081E-1,-8.070974E-2,-7.034211E-2,2.3720179E-2,1.1823708E-1,1.9617724E-1,1.7123705E-1,2.2741254E-1,-1.7335966E-2,6.26558E-2,4.5034744E-2,1.0901167E-1,1.7287534E-1,3.9479584E-2,1.9905005E-1,2.3564754E-1,1.092489E-1,1.8322039E-1,1.5444954E-1,1.9876917E-1,1.878843E-1,1.5560973E-1,2.6122302E-1,2.0321451E-1],"categories":[],"categories_nodes":[],"categories_segments":[],"categories_sizes":[],"default_left":[0,0,0,0,0,0,0,0,0,0,0,0,0,0,0,0,0,0,0,0,0,0,0,0,0,0,0,0,0,0,0,0,0,0,0,0,0,0,0,0,0,0,0,0,0,0,0,0,0,0,0,0,0,0,0,0,0,0,0,0,0,0,0],"id":5,"left_children":[1,3,5,7,9,11,13,15,17,19,21,23,25,27,29,31,33,35,37,39,41,43,45,47,49,51,53,55,57,59,61,-1,-1,-1,-1,-1,-1,-1,-1,-1,-1,-1,-1,-1,-1,-1,-1,-1,-1,-1,-1,-1,-1,-1,-1,-1,-1,-1,-1,-1,-1,-1,-1],"loss_changes":[8.063428E3,1.2774199E3,6.119944E2,2.5345312E2,2.6768768E2,2.4432288E2,5.2523193E1,1.8619092E2,1.16870775E1,1.7218524E2,5.2690125E0,1.5471472E2,7.5492554E0,2.2528748E1,1.9075928E1,4.351367E1,1.6106189E2,1.4766689E1,9.578476E-1,7.251782E1,4.4270126E1,2.2943535E0,9.5832825E-1,5.9235146E1,1.00067566E2,4.1305695E0,2.154541E0,1.1212921E1,8.112488E0,7.505005E0,1.08897705E1,0E0,0E0,0E0,0E0,0E0,0E0,0E0,0E0,0E0,0E0,0E0,0E0,0E0,0E0,0E0,0E0,0E0,0E0,0E0,0E0,0E0,0E0,0E0,0E0,0E0,0E0,0E0,0E0,0E0,0E0,0E0,0E0],"parents":[2147483647,0,0,1,1,2,2,3,3,4,4,5,5,6,6,7,7,8,8,9,9,10,10,11,11,12,12,13,13,14,14,15,15,16,16,17,17,18,18,19,19,20,20,21,21,22,22,23,23,24,24,25,25,26,26,27,27,28,28,29,29,30,30],"right_children":[2,4,6,8,10,12,14,16,18,20,22,24,26,28,30,32,34,36,38,40,42,44,46,48,50,52,54,56,58,60,62,-1,-1,-1,-1,-1,-1,-1,-1,-1,-1,-1,-1,-1,-1,-1,-1,-1,-1,-1,-1,-1,-1,-1,-1,-1,-1,-1,-1,-1,-1,-1,-1],"split_conditions":[8E0,6E0,1.1E1,1E0,1E0,1E0,1.2E1,4E0,9E0,2E0,2E0,9E0,1E0,1E0,3E0,1E0,1.4E1,1E0,2.2E1,1E0,1E0,2.6E1,1E0,3E0,1E0,1E0,3E0,1E0,1E0,1E0,7E0,-3.1748706E-1,-2.415612E-1,-2.3694937E-1,-3.9088793E-2,2.5459546E-1,-4.0052578E-2,1.7477247E-1,1.0770476E-1,-1.6960081E-1,-8.070974E-2,-7.034211E-2,2.3720179E-2,1.1823708E-1,1.9617724E-1,1.7123705E-1,2.2741254E-1,-1.7335966E-2,6.26558E-2,4.5034744E-2,1.0901167E-1,1.7287534E-1,3.9479584E-2,1.9905005E-1,2.3564754E-1,1.092489E-1,1.8322039E-1,1.5444954E-1,1.9876917E-1,1.878843E-1,1.5560973E-1,2.6122302E-1,2.0321451E-1],"split_indices":[13,13,13,6,6,6,13,13,2,2,15,13,2,4,2,9,2,13,2,4,4,0,4,2,4,5,15,9,0,7,2,0,0,0,0,0,0,0,0,0,0,0,0,0,0,0,0,0,0,0,0,0,0,0,0,0,0,0,0,0,0,0,0],"split_type":[0,0,0,0,0,0,0,0,0,0,0,0,0,0,0,0,0,0,0,0,0,0,0,0,0,0,0,0,0,0,0,0,0,0,0,0,0,0,0,0,0,0,0,0,0,0,0,0,0,0,0,0,0,0,0,0,0,0,0,0,0,0,0],"sum_hessian":[3.6482285E4,1.3794328E4,2.2687955E4,8.197734E3,5.5965933E3,1.4012946E4,8.67501E3,7.9811206E3,2.1661421E2,5.199383E3,3.9721045E2,1.2746372E4,1.2665737E3,3.808001E3,4.867009E3,4.7872856E3,3.193835E3,1.2415812E2,9.245609E1,3.3602168E3,1.839166E3,2.2975554E2,1.6745491E2,3.908551E3,8.837821E3,5.408938E2,7.2567993E2,1.7037607E3,2.10424E3,3.3874487E3,1.47956E3,3.9440967E3,8.43189E2,2.765852E3,4.279829E2,1.682715E1,1.0733097E2,4.5267746E1,4.7188343E1,1.8844033E3,1.4758134E3,7.843008E2,1.0548652E3,1.8462225E2,4.5133278E1,6.699294E1,1.0046197E2,2.7058958E3,1.2026554E3,4.1514033E3,4.6864175E3,5.1841486E2,2.2478973E1,4.056707E2,3.2000925E2,1.4909655E3,2.1279529E2,1.5969967E3,5.0724338E2,2.4487195E3,9.3872943E2,4.3010883E2,1.0494512E3],"tree_param":{"num_deleted":"0","num_feature":"17","num_nodes":"63","size_leaf_vector":"0"}},{"base_weights":[1.3896562E-3,-7.035914E-1,1.8734762E-1,-6.858449E-3,-7.459036E-1,-6.3290544E-2,3.2311925E-1,-2.7040663E-1,1.7927025E-1,-8.639438E-1,-5.8023953E-1,-1.0101805E-1,4.3236363E-1,2.3154165E-1,4.2768145E-1,-9.1644883E-1,-3.2951903E-2,-5.6989783E-1,2.6076424E-1,-9.1086924E-1,-6.94206E-1,-6.9482654E-1,-2.8861734E-1,-3.4501663E-1,-4.1215517E-2,3.7811437E-1,7.518273E-1,2.0224205E-1,5.4374063E-1,4.0561745E-1,5.9766775E-1,-2.944182E-1,1.0111451E-1,1.6640806E-1,-7.013552E-2,-4.0488073E-1,4.687404E-2,2.818013E-2,2.299799E-1,-2.7667177E-1,-3.8292952E-2,-2.6831213E-1,-1.8502323E-1,-2.3291808E-1,-7.4613E-2,-1.18295155E-1,9.052865E-3,-1.3117452E-1,1.2299389E-2,-3.9992828E-2,2.4257736E-2,8.242372E-2,1.6582626E-1,2.8923064E-1,1.3886324E-1,3.9843656E-3,7.738282E-2,1.5502395E-1,2.2762583E-1,1.1570888E-1,1.8062183E-1,2.3568863E-1,1.7203525E-1],"categories":[],"categories_nodes":[],"categories_segments":[],"categories_sizes":[],"default_left":[0,0,0,0,0,0,0,0,0,0,0,0,0,0,0,0,0,0,0,0,0,0,0,0,0,0,0,0,0,0,0,0,0,0,0,0,0,0,0,0,0,0,0,0,0,0,0,0,0,0,0,0,0,0,0,0,0,0,0,0,0,0,0],"id":6,"left_children":[1,3,5,7,9,11,13,15,17,19,21,23,25,27,29,31,33,35,37,39,41,43,45,47,49,51,53,55,57,59,61,-1,-1,-1,-1,-1,-1,-1,-1,-1,-1,-1,-1,-1,-1,-1,-1,-1,-1,-1,-1,-1,-1,-1,-1,-1,-1,-1,-1,-1,-1,-1,-1],"loss_changes":[4.5908384E3,2.154707E2,9.429634E2,2.0625427E1,1.3424585E2,1.8212448E2,1.7200708E2,2.6666536E1,1.5195019E1,3.1400146E1,9.570477E1,1.3202829E2,1.1655121E1,8.75564E1,3.1227417E1,4.135437E0,1.5270478E1,1.4077945E1,1.8743073E1,2.7910889E1,1.3019043E1,7.4756714E1,2.7350258E1,6.3432404E1,8.173092E1,1.051564E1,5.625675E0,9.223105E1,4.376999E0,2.8845093E1,3.9277039E0,0E0,0E0,0E0,0E0,0E0,0E0,0E0,0E0,0E0,0E0,0E0,0E0,0E0,0E0,0E0,0E0,0E0,0E0,0E0,0E0,0E0,0E0,0E0,0E0,0E0,0E0,0E0,0E0,0E0,0E0,0E0,0E0],"parents":[2147483647,0,0,1,1,2,2,3,3,4,4,5,5,6,6,7,7,8,8,9,9,10,10,11,11,12,12,13,13,14,14,15,15,16,16,17,17,18,18,19,19,20,20,21,21,22,22,23,23,24,24,25,25,26,26,27,27,28,28,29,29,30,30],"right_children":[2,4,6,8,10,12,14,16,18,20,22,24,26,28,30,32,34,36,38,40,42,44,46,48,50,52,54,56,58,60,62,-1,-1,-1,-1,-1,-1,-1,-1,-1,-1,-1,-1,-1,-1,-1,-1,-1,-1,-1,-1,-1,-1,-1,-1,-1,-1,-1,-1,-1,-1,-1,-1],"split_conditions":[6E0,5E0,9E0,6E0,4E0,1E0,1.1E1,2.51E1,1E0,3E0,3.315E1,2.443E1,4E0,1E0,1E0,1E0,2.737E1,3E1,4E0,1E0,1E0,1.1E1,3E0,9E0,8E0,3E0,2.874E1,2.472E1,3E0,1E0,6E0,-2.944182E-1,1.0111451E-1,1.6640806E-1,-7.013552E-2,-4.0488073E-1,4.687404E-2,2.818013E-2,2.299799E-1,-2.7667177E-1,-3.8292952E-2,-2.6831213E-1,-1.8502323E-1,-2.3291808E-1,-7.4613E-2,-1.18295155E-1,9.052865E-3,-1.3117452E-1,1.2299389E-2,-3.9992828E-2,2.4257736E-2,8.242372E-2,1.6582626E-1,2.8923064E-1,1.3886324E-1,3.9843656E-3,7.738282E-2,1.5502395E-1,2.2762583E-1,1.1570888E-1,1.8062183E-1,2.3568863E-1,1.7203525E-1],"split_indices":[13,3,13,0,13,6,13,1,13,14,1,1,14,6,6,6,1,0,14,10,13,0,15,0,13,15,1,1,14,10,3,0,0,0,0,0,0,0,0,0,0,0,0,0,0,0,0,0,0,0,0,0,0,0,0,0,0,0,0,0,0,0,0],"split_type":[0,0,0,0,0,0,0,0,0,0,0,0,0,0,0,0,0,0,0,0,0,0,0,0,0,0,0,0,0,0,0,0,0,0,0,0,0,0,0,0,0,0,0,0,0,0,0,0,0,0,0,0,0,0,0,0,0,0,0,0,0,0,0],"sum_hessian":[3.501667E4,7.308145E3,2.770853E4,4.184765E2,6.8896685E3,9.73605E3,1.7972479E4,1.7302693E2,2.4544958E2,4.020638E3,2.8690305E3,9.048133E3,6.879167E2,9.582847E3,8.389632E3,4.5735382E1,1.2729155E2,2.3492416E1,2.2195717E2,3.1464187E3,8.742194E2,2.058717E3,8.1031335E2,1.7801648E3,7.267968E3,5.8992334E2,9.799339E1,8.762173E3,8.206742E2,7.428774E3,9.608581E2,4.368889E1,2.0464942E0,3.1973606E1,9.531794E1,1.0914396E1,1.257802E1,1.6780034E2,5.4156826E1,3.1012212E3,4.5197304E1,2.4097507E2,6.332443E2,1.7398636E3,3.188535E2,6.0836554E2,2.0194781E2,1.4367457E3,3.4341916E2,4.1426406E3,3.1253274E3,3.7219537E2,2.1772795E2,5.5144985E1,4.2848404E1,1.9951149E3,6.767058E3,7.3215717E2,8.851706E1,6.7475176E3,6.812565E2,1.0607912E2,8.54779E2],"tree_param":{"num_deleted":"0","num_feature":"17","num_nodes":"63","size_leaf_vector":"0"}},{"base_weights":[5.745962E-4,-5.3921896E-1,1.3233978E-1,-7.3626906E-2,-6.386226E-1,9.65612E-4,2.7785227E-1,-5.306273E-1,9.091657E-2,-6.943446E-1,-3.632524E-1,1.3736914E-1,-2.0841566E-1,3.469263E-1,1.6919872E-1,-6.6530854E-1,-2.473141E-1,-6.0801428E-2,3.856485E-1,-7.71894E-1,-5.702724E-1,-6.6057056E-1,-2.5461718E-1,3.9795142E-1,9.7767256E-2,-2.2668295E-1,5.2155924E-1,3.823035E-1,1.3951598E-1,1.4832957E-1,3.4374785E-1,-2.6509E-1,-1.0259957E-1,-2.330444E-1,-1.0309244E-2,3.417962E-2,-6.7672364E-2,5.1005717E-2,2.7235928E-1,-2.4833374E-1,-1.6722514E-1,-1.9060348E-1,-6.33739E-2,-2.4668819E-1,-3.0178929E-2,-1.1828865E-1,-3.812172E-2,1.1447184E-1,1.8542144E-1,-1.2792945E-2,5.3855553E-2,-8.9683205E-2,-2.4104444E-2,1.23056546E-1,2.8095853E-1,1.0027455E-1,1.3848957E-1,7.914618E-2,5.6552393E-3,5.5310093E-2,1.1780507E-2,1.4496036E-1,6.343087E-2],"categories":[],"categories_nodes":[],"categories_segments":[],"categories_sizes":[],"default_left":[0,0,0,0,0,0,0,0,0,0,0,0,0,0,0,0,0,0,0,0,0,0,0,0,0,0,0,0,0,0,0,0,0,0,0,0,0,0,0,0,0,0,0,0,0,0,0,0,0,0,0,0,0,0,0,0,0,0,0,0,0,0,0],"id":7,"left_children":[1,3,5,7,9,11,13,15,17,19,21,23,25,27,29,31,33,35,37,39,41,43,45,47,49,51,53,55,57,59,61,-1,-1,-1,-1,-1,-1,-1,-1,-1,-1,-1,-1,-1,-1,-1,-1,-1,-1,-1,-1,-1,-1,-1,-1,-1,-1,-1,-1,-1,-1,-1,-1],"loss_changes":[2.4054854E3,3.0706653E2,5.1967053E2,8.792332E1,8.36521E1,4.0807565E2,9.674335E1,1.164563E1,3.8483406E1,4.3307617E1,2.9623825E1,8.924429E1,7.52769E1,5.77984E1,1.8216446E1,1.4464195E1,1.1397869E1,1.639845E1,3.2773937E1,3.3041138E1,4.08125E1,2.2213844E1,1.2013844E1,3.8780365E0,8.62333E1,5.8128662E1,5.9892464E0,2.5519897E1,1.7250376E1,1.760447E1,9.765293E0,0E0,0E0,0E0,0E0,0E0,0E0,0E0,0E0,0E0,0E0,0E0,0E0,0E0,0E0,0E0,0E0,0E0,0E0,0E0,0E0,0E0,0E0,0E0,0E0,0E0,0E0,0E0,0E0,0E0,0E0,0E0,0E0],"parents":[2147483647,0,0,1,1,2,2,3,3,4,4,5,5,6,6,7,7,8,8,9,9,10,10,11,11,12,12,13,13,14,14,15,15,16,16,17,17,18,18,19,19,20,20,21,21,22,22,23,23,24,24,25,25,26,26,27,27,28,28,29,29,30,30],"right_children":[2,4,6,8,10,12,14,16,18,20,22,24,26,28,30,32,34,36,38,40,42,44,46,48,50,52,54,56,58,60,62,-1,-1,-1,-1,-1,-1,-1,-1,-1,-1,-1,-1,-1,-1,-1,-1,-1,-1,-1,-1,-1,-1,-1,-1,-1,-1,-1,-1,-1,-1,-1,-1],"split_conditions":[6E0,2E0,1E1,3E0,3E0,3E0,3E0,1E0,1E0,1E0,2E0,1E0,1E0,1E0,3E0,9E0,1E0,7E0,4E0,5E0,1E0,4E0,1E0,5E0,8E0,9E0,1E0,1.2E1,2E0,4E0,7E0,-2.6509E-1,-1.0259957E-1,-2.330444E-1,-1.0309244E-2,3.417962E-2,-6.7672364E-2,5.1005717E-2,2.7235928E-1,-2.4833374E-1,-1.6722514E-1,-1.9060348E-1,-6.33739E-2,-2.4668819E-1,-3.0178929E-2,-1.1828865E-1,-3.812172E-2,1.1447184E-1,1.8542144E-1,-1.2792945E-2,5.3855553E-2,-8.9683205E-2,-2.4104444E-2,1.23056546E-1,2.8095853E-1,1.0027455E-1,1.3848957E-1,7.914618E-2,5.6552393E-3,5.5310093E-2,1.1780507E-2,1.4496036E-1,6.343087E-2],"split_indices":[13,16,13,13,2,16,16,9,9,4,13,16,10,14,2,2,13,2,14,13,9,14,4,14,13,13,9,13,16,16,2,0,0,0,0,0,0,0,0,0,0,0,0,0,0,0,0,0,0,0,0,0,0,0,0,0,0,0,0,0,0,0,0],"split_type":[0,0,0,0,0,0,0,0,0,0,0,0,0,0,0,0,0,0,0,0,0,0,0,0,0,0,0,0,0,0,0,0,0,0,0,0,0,0,0,0,0,0,0,0,0,0,0,0,0,0,0,0,0,0,0,0,0,0,0,0,0,0,0],"sum_hessian":[3.381806E4,6.634766E3,2.7183293E4,1.1676068E3,5.467159E3,1.428619E4,1.2897103E4,3.0851562E2,8.5909125E2,4.5457837E3,9.213755E2,8.650851E3,5.63534E3,7.883289E3,5.0138135E3,2.081955E2,1.00320114E2,5.6766846E2,2.9142276E2,2.794133E3,1.7516506E3,2.4520526E2,6.761702E2,1.1400723E3,7.5107783E3,5.498433E3,1.3690631E2,6.733874E3,1.1494149E3,4.4800293E3,5.337842E2,1.23240555E2,8.495494E1,2.801439E1,7.2305725E1,2.7565692E2,2.9201157E2,2.0719493E2,8.422782E1,2.2143037E3,5.7982935E2,1.4822307E3,2.6942E2,1.8989435E2,5.5310913E1,3.217358E2,3.5443442E2,1.0636611E3,7.64112E1,2.763999E3,4.7467793E3,3.6801226E3,1.8183108E3,1.0950538E2,2.7400925E1,4.196786E3,2.5370876E3,5.6558484E2,5.838301E2,3.3668284E3,1.113201E3,2.5858728E2,2.7519687E2],"tree_param":{"num_deleted":"0","num_feature":"17","num_nodes":"63","size_leaf_vector":"0"}},{"base_weights":[-4.571145E-3,-4.5873263E-1,9.725224E-2,-5.424837E-1,-1.0485659E-1,3.2343614E-1,-1.5507898E-1,-5.6507456E-1,3.2618403E-1,3.1082332E-1,-1.8508114E-1,1.5620022E-1,4.174205E-1,-2.2479135E-1,1.4243113E-1,-6.84764E-1,-4.0276727E-1,3.8675147E-1,-5.915662E-1,1.2737267E0,1.937284E-1,-3.8546523E-1,-2.4639543E-2,1.3445865E-1,5.127323E-1,4.317144E-1,7.65289E-2,-3.077665E-1,-2.0726053E-2,1.0531269E-1,2.4164918E-1,-5.2771494E-2,-2.1217233E-1,-5.350451E-2,-1.6200262E-1,2.4921018E-1,8.022651E-2,4.079947E-1,7.1703168E-3,2.2767785E-1,3.0223878E-2,-1.2236982E-1,2.7405247E-1,-2.604911E-2,1.5764575E-1,1.7144762E-2,6.967923E-2,1.5931012E-1,-6.566824E-3,1.373779E-1,6.941508E-2,2.2256966E-1,1.1741831E-2,-1.016194E-1,5.3020507E-2,-2.0854963E-2,8.644439E-2,-2.5364798E-1,3.293511E-2,1.2320664E-1,5.7032097E-2],"categories":[],"categories_nodes":[],"categories_segments":[],"categories_sizes":[],"default_left":[0,0,0,0,0,0,0,0,0,0,0,0,0,0,0,0,0,0,0,0,0,0,0,0,0,0,0,0,0,0,0,0,0,0,0,0,0,0,0,0,0,0,0,0,0,0,0,0,0,0,0,0,0,0,0,0,0,0,0,0,0],"id":8,"left_children":[1,3,5,7,9,11,13,15,17,19,21,23,25,27,29,31,33,35,-1,37,39,41,43,45,47,49,51,53,55,57,59,-1,-1,-1,-1,-1,-1,-1,-1,-1,-1,-1,-1,-1,-1,-1,-1,-1,-1,-1,-1,-1,-1,-1,-1,-1,-1,-1,-1,-1,-1],"loss_changes":[1.5071732E3,1.7684448E2,1.5194985E3,9.4895874E1,3.8191612E1,2.2059497E2,2.6104022E2,9.1112915E1,1.7878258E1,2.0653532E1,3.0827496E1,3.9097534E1,4.3759277E1,1.7263654E2,8.775204E0,3.0828491E1,6.1475677E1,6.1692257E0,0E0,2.1147766E0,8.670947E0,1.2799202E1,1.8306255E1,3.600612E1,2.849594E0,4.518689E1,8.99907E0,1.08806885E2,4.445358E1,7.4931774E0,5.5836334E0,0E0,0E0,0E0,0E0,0E0,0E0,0E0,0E0,0E0,0E0,0E0,0E0,0E0,0E0,0E0,0E0,0E0,0E0,0E0,0E0,0E0,0E0,0E0,0E0,0E0,0E0,0E0,0E0,0E0,0E0],"parents":[2147483647,0,0,1,1,2,2,3,3,4,4,5,5,6,6,7,7,8,8,9,9,10,10,11,11,12,12,13,13,14,14,15,15,16,16,17,17,19,19,20,20,21,21,22,22,23,23,24,24,25,25,26,26,27,27,28,28,29,29,30,30],"right_children":[2,4,6,8,10,12,14,16,18,20,22,24,26,28,30,32,34,36,-1,38,40,42,44,46,48,50,52,54,56,58,60,-1,-1,-1,-1,-1,-1,-1,-1,-1,-1,-1,-1,-1,-1,-1,-1,-1,-1,-1,-1,-1,-1,-1,-1,-1,-1,-1,-1,-1,-1],"split_conditions":[6E0,6E0,1E0,1E0,5E0,9E0,1.2E1,4E0,5E0,1E1,4E0,1E0,1E0,5E0,4E0,5E0,7E0,2E0,-5.915662E-1,1E0,3E0,1.3E1,1E0,8E0,1E0,1E0,5E0,1E0,1E0,4E0,7E0,-5.2771494E-2,-2.1217233E-1,-5.350451E-2,-1.6200262E-1,2.4921018E-1,8.022651E-2,4.079947E-1,7.1703168E-3,2.2767785E-1,3.0223878E-2,-1.2236982E-1,2.7405247E-1,-2.604911E-2,1.5764575E-1,1.7144762E-2,6.967923E-2,1.5931012E-1,-6.566824E-3,1.373779E-1,6.941508E-2,2.2256966E-1,1.1741831E-2,-1.016194E-1,5.3020507E-2,-2.0854963E-2,8.644439E-2,-2.5364798E-1,3.293511E-2,1.2320664E-1,5.7032097E-2],"split_indices":[13,2,12,6,3,13,13,13,2,2,13,10,5,2,2,3,3,13,0,6,3,3,6,13,5,14,3,6,10,3,2,0,0,0,0,0,0,0,0,0,0,0,0,0,0,0,0,0,0,0,0,0,0,0,0,0,0,0,0,0,0],"split_type":[0,0,0,0,0,0,0,0,0,0,0,0,0,0,0,0,0,0,0,0,0,0,0,0,0,0,0,0,0,0,0,0,0,0,0,0,0,0,0,0,0,0,0,0,0,0,0,0,0,0,0,0,0,0,0,0,0,0,0,0,0],"sum_hessian":[3.2589611E4,5.967838E3,2.6621771E4,4.8253096E3,1.1425283E3,1.4038079E4,1.2583693E4,4.7033423E3,1.21967445E2,1.8436661E2,9.581617E2,5.051714E3,8.986365E3,1.0195042E4,2.388651E3,2.7052244E3,1.998118E3,1.1964579E2,2.321651E0,1.8918327E1,1.6544827E2,4.2542416E2,5.3273755E2,4.7626606E3,2.890532E2,8.624468E3,3.6189783E2,7.247587E3,2.947455E3,1.7398264E3,6.488246E2,1.1481225E2,2.590412E3,7.591106E2,1.2390074E3,2.4083872E1,9.556192E1,1.7614538E1,1.3037874E0,2.2361353E1,1.4308691E2,4.188759E2,6.5482864E0,4.7938586E2,5.335167E1,2.6609336E3,2.1017273E3,2.7949222E2,9.560973E0,7.6254443E3,9.990231E2,1.8251846E1,3.4364597E2,6.812496E3,4.350907E2,2.5460498E3,4.0140524E2,7.262557E0,1.7325638E3,1.4997923E2,4.988453E2],"tree_param":{"num_deleted":"0","num_feature":"17","num_nodes":"61","size_leaf_vector":"0"}},{"base_weights":[-4.977226E-3,1.4613499E-1,-1.725075E-1,-4.113998E-1,2.287826E-1,-2.7881038E-1,-2.077871E-2,-4.385396E-1,5.0708E-1,9.365382E-2,3.1909233E-1,-3.4141314E-1,-1.8396676E-2,-4.603827E-2,2.1598212E-1,-6.4790815E-1,-3.2837945E-1,-1.8001851E-1,6.3974524E-1,-1.8307704E-2,2.798046E-1,1.1840747E-1,3.448024E-1,-3.918466E-1,-1.3704681E-1,-5.8021996E-2,3.2612258E-1,-9.23228E-2,3.3493284E-2,3.5147744E-1,1.3541028E-1,-1.9892734E-2,-2.1704322E-1,-1.2677366E-1,-3.342559E-2,3.967785E-1,-2.6569048E-1,2.8665596E-1,1.4352243E-1,-1.569609E-2,1.3634822E-1,5.886493E-2,1.0706785E-1,-4.107047E-2,5.6319166E-2,8.837841E-2,1.24943525E-1,-1.09904714E-1,-2.1437804E-1,-5.2865077E-2,4.0435407E-2,-3.0197766E-2,7.3025435E-2,-1.4676449E-1,1.0743622E-1,-5.2810628E-2,1.2401807E-3,6.399322E-3,1.6007742E-1,7.064098E-2,1.28138E-1,-5.194038E-2,8.130495E-2],"categories":[],"categories_nodes":[],"categories_segments":[],"categories_sizes":[],"default_left":[0,0,0,0,0,0,0,0,0,0,0,0,0,0,0,0,0,0,0,0,0,0,0,0,0,0,0,0,0,0,0,0,0,0,0,0,0,0,0,0,0,0,0,0,0,0,0,0,0,0,0,0,0,0,0,0,0,0,0,0,0,0,0],"id":9,"left_children":[1,3,5,7,9,11,13,15,17,19,21,23,25,27,29,31,33,35,37,39,41,43,45,47,49,51,53,55,57,59,61,-1,-1,-1,-1,-1,-1,-1,-1,-1,-1,-1,-1,-1,-1,-1,-1,-1,-1,-1,-1,-1,-1,-1,-1,-1,-1,-1,-1,-1,-1,-1,-1],"loss_changes":[8.0055475E2,7.662031E2,2.4187802E2,5.373587E1,1.766789E2,1.43755E2,3.6965298E1,4.7892E1,5.773778E0,1.2093172E2,4.4740112E1,7.322003E1,2.33647E1,2.055991E1,6.457716E0,3.1510345E1,2.792514E1,1.2650453E1,2.204853E0,5.8301743E1,1.3971756E1,1.7497025E1,2.7561829E1,4.665741E1,1.5022984E1,1.9747416E1,4.781307E0,2.8506987E1,1.24884205E1,1.8439732E0,1.5749844E1,0E0,0E0,0E0,0E0,0E0,0E0,0E0,0E0,0E0,0E0,0E0,0E0,0E0,0E0,0E0,0E0,0E0,0E0,0E0,0E0,0E0,0E0,0E0,0E0,0E0,0E0,0E0,0E0,0E0,0E0,0E0,0E0],"parents":[2147483647,0,0,1,1,2,2,3,3,4,4,5,5,6,6,7,7,8,8,9,9,10,10,11,11,12,12,13,13,14,14,15,15,16,16,17,17,18,18,19,19,20,20,21,21,22,22,23,23,24,24,25,25,26,26,27,27,28,28,29,29,30,30],"right_children":[2,4,6,8,10,12,14,16,18,20,22,24,26,28,30,32,34,36,38,40,42,44,46,48,50,52,54,56,58,60,62,-1,-1,-1,-1,-1,-1,-1,-1,-1,-1,-1,-1,-1,-1,-1,-1,-1,-1,-1,-1,-1,-1,-1,-1,-1,-1,-1,-1,-1,-1,-1,-1],"split_conditions":[1E0,5E0,1E1,1E0,9E0,3E0,1E0,2E0,1E0,3.117E1,2.312E1,1E0,1E0,1.2E1,2.486E1,2.052E1,3.187E1,1.758E1,2.369E1,1E0,1E0,1E1,1.1E1,1E0,1E0,1E0,5E0,1E0,3.933E1,2.181E1,2.832E1,-1.9892734E-2,-2.1704322E-1,-1.2677366E-1,-3.342559E-2,3.967785E-1,-2.6569048E-1,2.8665596E-1,1.4352243E-1,-1.569609E-2,1.3634822E-1,5.886493E-2,1.0706785E-1,-4.107047E-2,5.6319166E-2,8.837841E-2,1.24943525E-1,-1.09904714E-1,-2.1437804E-1,-5.2865077E-2,4.0435407E-2,-3.0197766E-2,7.3025435E-2,-1.4676449E-1,1.0743622E-1,-5.2810628E-2,1.2401807E-3,6.399322E-3,1.6007742E-1,7.064098E-2,1.28138E-1,-5.194038E-2,8.130495E-2],"split_indices":[12,13,13,6,13,15,6,13,8,1,1,7,6,13,1,1,1,1,1,6,4,13,13,11,6,10,13,4,1,1,1,0,0,0,0,0,0,0,0,0,0,0,0,0,0,0,0,0,0,0,0,0,0,0,0,0,0,0,0,0,0,0,0],"split_type":[0,0,0,0,0,0,0,0,0,0,0,0,0,0,0,0,0,0,0,0,0,0,0,0,0,0,0,0,0,0,0,0,0,0,0,0,0,0,0,0,0,0,0,0,0,0,0,0,0,0,0,0,0,0,0,0,0,0,0,0,0,0,0],"sum_hessian":[3.162065E4,1.662502E4,1.4995632E4,2.145778E3,1.4479241E4,8.817297E3,6.178335E3,2.0847004E3,6.1077446E1,5.80114E3,8.678101E3,7.1081943E3,1.7091022E3,5.5834526E3,5.948823E2,7.170348E2,1.3676658E3,9.826611E0,5.1250835E1,3.6229785E3,2.1781614E3,9.8614685E2,7.691954E3,5.7005073E3,1.4076871E3,1.5335504E3,1.7555168E2,3.5293413E3,2.0541113E3,2.2057892E2,3.743034E2,8.266927E1,6.343655E2,9.5296326E2,4.1470248E2,2.8605895E0,6.966021E0,1.5666107E1,3.558473E1,3.3806682E3,2.4231042E2,1.0467246E3,1.1314368E3,2.1037709E2,7.757698E2,4.526402E3,3.1655525E3,5.2851094E3,4.1539792E2,1.2306989E3,1.7698825E2,1.3441002E3,1.8945026E2,6.089809E0,1.6946187E2,1.8890511E3,1.64029E3,2.00636E3,4.7751328E1,8.868846E1,1.3189046E2,1.14196144E2,2.6010727E2],"tree_param":{"num_deleted":"0","num_feature":"17","num_nodes":"63","size_leaf_vector":"0"}},{"base_weights":[4.6642115E-3,-2.0282404E-1,6.994534E-2,1.386192E-1,-3.0354083E-1,1.3863215E-1,-3.3159513E-2,-5.778065E-1,1.6987556E-1,-3.7252837E-1,-6.3007325E-2,1.0313612E-1,3.0715778E-1,1.5562133E-2,-1.7484733E-1,6.140616E-2,-7.4917185E-1,8.221545E-2,3.5207435E-1,-2.1994247E-1,-4.7080734E-1,-4.628622E-1,6.220235E-2,1.39766615E-2,1.3940637E-1,5.8081657E-1,2.9464236E-1,-2.2291394E-3,2.7603102E-1,-2.8413054E-1,7.559616E-2,-3.5057965E-1,1.1416651E-1,-2.4600099E-1,2.639469E-1,9.81782E-3,1.5079188E-1,8.3408624E-2,1.5269756E-1,-1.8905534E-1,-4.8657924E-2,-1.5441464E-1,-4.605905E-2,-2.087205E-1,-8.525884E-3,1.6682874E-1,4.695296E-3,-2.6389422E-2,2.5813026E-2,-3.568329E-2,4.427602E-2,2.0606737E-1,-7.0082195E-2,1.071574E-1,6.67478E-2,-1.2417458E-2,2.2924542E-2,-1.0518244E-1,9.883867E-2,-9.357579E-2,1.4817117E-1,-1.8109398E-2,5.490783E-2],"categories":[],"categories_nodes":[],"categories_segments":[],"categories_sizes":[],"default_left":[0,0,0,0,0,0,0,0,0,0,0,0,0,0,0,0,0,0,0,0,0,0,0,0,0,0,0,0,0,0,0,0,0,0,0,0,0,0,0,0,0,0,0,0,0,0,0,0,0,0,0,0,0,0,0,0,0,0,0,0,0,0,0],"id":10,"left_children":[1,3,5,7,9,11,13,15,17,19,21,23,25,27,29,31,33,35,37,39,41,43,45,47,49,51,53,55,57,59,61,-1,-1,-1,-1,-1,-1,-1,-1,-1,-1,-1,-1,-1,-1,-1,-1,-1,-1,-1,-1,-1,-1,-1,-1,-1,-1,-1,-1,-1,-1,-1,-1],"loss_changes":[4.1738235E2,2.5365173E2,1.6600235E2,3.7729927E1,9.4481445E1,8.412305E1,6.4704E1,7.7663593E0,2.5701977E1,6.626294E1,6.3641026E1,3.758152E1,8.209976E0,3.2324413E1,6.566167E1,6.6567445E0,7.1432514E0,2.2642344E1,5.9355087E0,4.1017647E1,3.7408752E1,3.0645477E1,2.225776E1,2.4705359E1,1.7476654E1,9.316872E0,1.0490082E1,2.011569E1,1.504813E1,3.6258987E1,1.0664662E1,0E0,0E0,0E0,0E0,0E0,0E0,0E0,0E0,0E0,0E0,0E0,0E0,0E0,0E0,0E0,0E0,0E0,0E0,0E0,0E0,0E0,0E0,0E0,0E0,0E0,0E0,0E0,0E0,0E0,0E0,0E0,0E0],"parents":[2147483647,0,0,1,1,2,2,3,3,4,4,5,5,6,6,7,7,8,8,9,9,10,10,11,11,12,12,13,13,14,14,15,15,16,16,17,17,18,18,19,19,20,20,21,21,22,22,23,23,24,24,25,25,26,26,27,27,28,28,29,29,30,30],"right_children":[2,4,6,8,10,12,14,16,18,20,22,24,26,28,30,32,34,36,38,40,42,44,46,48,50,52,54,56,58,60,62,-1,-1,-1,-1,-1,-1,-1,-1,-1,-1,-1,-1,-1,-1,-1,-1,-1,-1,-1,-1,-1,-1,-1,-1,-1,-1,-1,-1,-1,-1,-1,-1],"split_conditions":[7E0,2E0,3E0,1E0,7E0,1E0,4E0,1E0,1E0,3E0,2E0,9E0,1.992E1,1E1,1.1E1,2.111E1,1E0,1E0,3E0,2E0,1E0,1E0,2.146E1,1E0,1.953E1,2.3E1,2E0,1.1E1,2.13E1,1E0,1.2E1,-3.5057965E-1,1.1416651E-1,-2.4600099E-1,2.639469E-1,9.81782E-3,1.5079188E-1,8.3408624E-2,1.5269756E-1,-1.8905534E-1,-4.8657924E-2,-1.5441464E-1,-4.605905E-2,-2.087205E-1,-8.525884E-3,1.6682874E-1,4.695296E-3,-2.6389422E-2,2.5813026E-2,-3.568329E-2,4.427602E-2,2.0606737E-1,-7.0082195E-2,1.071574E-1,6.67478E-2,-1.2417458E-2,2.2924542E-2,-1.0518244E-1,9.883867E-2,-9.357579E-2,1.4817117E-1,-1.8109398E-2,5.490783E-2],"split_indices":[13,16,16,13,0,9,16,16,9,16,13,13,1,0,13,1,6,6,15,13,9,4,1,4,1,0,16,13,1,6,13,0,0,0,0,0,0,0,0,0,0,0,0,0,0,0,0,0,0,0,0,0,0,0,0,0,0,0,0,0,0,0,0],"split_type":[0,0,0,0,0,0,0,0,0,0,0,0,0,0,0,0,0,0,0,0,0,0,0,0,0,0,0,0,0,0,0,0,0,0,0,0,0,0,0,0,0,0,0,0,0,0,0,0,0,0,0,0,0,0,0,0,0,0,0,0,0,0,0],"sum_hessian":[3.0812297E4,7.3737163E3,2.343858E4,1.6795258E3,5.694191E3,1.4067016E4,9.371563E3,6.9480484E1,1.6100453E3,4.4246157E3,1.2695752E3,1.1620945E4,2.4460708E3,6.9742466E3,2.3973171E3,1.4824617E1,5.465587E1,1.0880231E3,5.2202216E2,1.7346583E3,2.6899573E3,3.0210657E2,9.674686E2,3.3608054E3,8.26014E3,1.04989624E2,2.3410813E3,6.5292583E3,4.4498822E2,1.6689303E3,7.2838684E2,2.5057614E0,1.2318856E1,5.2854294E1,1.8015729E0,9.7440125E2,1.1362185E2,3.565476E2,1.6547456E2,2.1283092E2,1.5218275E3,2.3624016E3,3.2755566E2,1.9628899E2,1.05817566E2,8.239036E1,8.8507825E2,1.3918109E3,1.9689945E3,2.5310414E2,8.0070356E3,9.302958E1,1.1960038E1,1.2518555E3,1.0892258E3,4.359058E3,2.1702007E3,3.4524498E1,4.104637E2,1.6119558E3,5.6974514E1,3.216951E2,4.0669177E2],"tree_param":{"num_deleted":"0","num_feature":"17","num_nodes":"63","size_leaf_vector":"0"}},{"base_weights":[-6.3922876E-3,-2.4880053E-1,2.5970412E-2,-3.6961675E-1,-1.7859155E-2,1.4823584E-1,-1.355934E-2,1.9375818E-2,-4.0839267E-1,-2.1979222E-1,5.327223E-2,2.5592947E-1,1.0600448E-1,-1.2769848E-1,2.1207878E-2,9.255942E-2,-3.8359144E-1,-5.1209795E-1,-3.0845755E-1,4.320192E-1,-3.7648833E-1,-4.699441E-1,1.0944917E-1,1.6315733E-1,3.69645E-1,1.9140725E-1,1.1648703E-2,-3.9835554E-2,-2.092532E-1,4.1708022E-2,-1.12978086E-1,4.855863E-2,-2.6712245E-1,3.486906E-3,-1.6135103E-1,-1.3148745E-2,-1.0613901E-1,6.023888E-2,5.938746E-1,-2.0960583E-1,-2.0907346E-2,-2.2160435E-1,3.627779E-2,3.625101E-1,2.9791242E-2,2.4974944E-2,8.164974E-2,1.4949034E-1,9.895285E-2,-7.1589515E-2,6.768808E-2,-6.2663932E-3,6.2311262E-2,-1.09017104E-1,-8.284997E-3,-6.719354E-2,1.1773349E-1,1.5765458E-2,-5.192279E-2,-3.9913412E-2,2.0997205E-1],"categories":[],"categories_nodes":[],"categories_segments":[],"categories_sizes":[],"default_left":[0,0,0,0,0,0,0,0,0,0,0,0,0,0,0,0,0,0,0,0,0,0,0,0,0,0,0,0,0,0,0,0,0,0,0,0,0,0,0,0,0,0,0,0,0,0,0,0,0,0,0,0,0,0,0,0,0,0,0,0,0],"id":11,"left_children":[1,3,5,7,9,11,13,15,17,19,21,23,25,27,29,31,-1,33,35,37,39,41,43,45,47,49,51,53,55,57,59,-1,-1,-1,-1,-1,-1,-1,-1,-1,-1,-1,-1,-1,-1,-1,-1,-1,-1,-1,-1,-1,-1,-1,-1,-1,-1,-1,-1,-1,-1],"loss_changes":[2.3588487E2,9.880516E1,1.2821004E2,3.507773E1,1.7498375E1,2.9449417E1,7.955449E1,2.0229631E1,2.1754517E1,3.2572853E1,2.6536932E1,1.9191956E1,3.7526794E1,3.3532204E1,4.227693E1,1.3860235E1,0E0,1.3972504E1,1.2933365E1,2.177583E1,2.5292057E1,1.3992403E1,8.960888E0,8.747168E0,4.030197E0,3.602693E1,1.4125498E1,8.902959E0,2.1593987E1,3.1057701E1,3.3317547E1,0E0,0E0,0E0,0E0,0E0,0E0,0E0,0E0,0E0,0E0,0E0,0E0,0E0,0E0,0E0,0E0,0E0,0E0,0E0,0E0,0E0,0E0,0E0,0E0,0E0,0E0,0E0,0E0,0E0,0E0],"parents":[2147483647,0,0,1,1,2,2,3,3,4,4,5,5,6,6,7,7,8,8,9,9,10,10,11,11,12,12,13,13,14,14,15,15,17,17,18,18,19,19,20,20,21,21,22,22,23,23,24,24,25,25,26,26,27,27,28,28,29,29,30,30],"right_children":[2,4,6,8,10,12,14,16,18,20,22,24,26,28,30,32,-1,34,36,38,40,42,44,46,48,50,52,54,56,58,60,-1,-1,-1,-1,-1,-1,-1,-1,-1,-1,-1,-1,-1,-1,-1,-1,-1,-1,-1,-1,-1,-1,-1,-1,-1,-1,-1,-1,-1,-1],"split_conditions":[5E0,2E0,2E0,2E0,2E0,1E0,8E0,1E0,2.694E1,2.126E1,2.214E1,1E0,1E0,3E0,4E0,1E0,-3.8359144E-1,1.879E1,2.806E1,4E0,6E0,1E0,2.23E1,1E1,1.5E1,2.154E1,1E0,2.099E1,2.3E1,1E0,1.5E1,4.855863E-2,-2.6712245E-1,3.486906E-3,-1.6135103E-1,-1.3148745E-2,-1.0613901E-1,6.023888E-2,5.938746E-1,-2.0960583E-1,-2.0907346E-2,-2.2160435E-1,3.627779E-2,3.625101E-1,2.9791242E-2,2.4974944E-2,8.164974E-2,1.4949034E-1,9.895285E-2,-7.1589515E-2,6.768808E-2,-6.2663932E-3,6.2311262E-2,-1.09017104E-1,-8.284997E-3,-6.719354E-2,1.1773349E-1,1.5765458E-2,-5.192279E-2,-3.9913412E-2,2.0997205E-1],"split_indices":[13,2,16,16,13,16,13,2,1,1,1,15,7,16,16,5,0,1,1,16,2,7,1,13,2,1,10,1,2,5,2,0,0,0,0,0,0,0,0,0,0,0,0,0,0,0,0,0,0,0,0,0,0,0,0,0,0,0,0,0,0],"split_type":[0,0,0,0,0,0,0,0,0,0,0,0,0,0,0,0,0,0,0,0,0,0,0,0,0,0,0,0,0,0,0,0,0,0,0,0,0,0,0,0,0,0,0,0,0,0,0,0,0,0,0,0,0,0,0,0,0,0,0,0,0],"sum_hessian":[3.0066412E4,3.5404539E3,2.6525959E4,2.3240398E3,1.2164142E3,6.4801426E3,2.0045816E4,2.1071252E2,2.1133271E3,3.1632297E2,9.000911E2,1.8239226E3,4.65622E3,4.6797485E3,1.5366067E4,2.003455E2,1.0367031E1,1.0350767E3,1.0782506E3,6.0965744E1,2.5535724E2,8.6557106E1,8.1353406E2,1.0057997E3,8.181229E2,2.4435234E3,2.2126968E3,2.2534668E3,2.426282E3,1.333024E4,2.0358269E3,1.8793103E2,1.2414464E1,4.8512653E1,9.8656396E2,1.58004E2,9.2024664E2,5.402375E1,6.941994E0,1.2392946E2,1.3142778E2,5.9325E1,2.7232105E1,6.361329E0,8.071727E2,5.813851E2,4.2441458E2,1.9057881E2,6.275441E2,1.7966739E2,2.263856E3,1.8985187E3,3.14178E2,8.095843E1,2.1725083E3,2.3689353E3,5.7346718E1,1.2690317E4,6.399232E2,1.987598E3,4.8228893E1],"tree_param":{"num_deleted":"0","num_feature":"17","num_nodes":"61","size_leaf_vector":"0"}},{"base_weights":[-2.1622907E-3,1.2668632E-1,-1.4328831E-1,-2.55855E-1,1.6025256E-1,-1.9497317E-1,7.6154575E-2,3.5824478E-1,-3.0997375E-1,1.0887012E-1,2.3632076E-1,-2.3796178E-1,-5.9630214E-3,-4.2759338E-1,9.7145505E-2,-4.1651902E-1,5.120021E-1,-3.4022596E-1,6.005242E-1,8.077244E-3,1.9568376E-1,2.5759268E-1,6.0183384E-2,-2.8671E-1,-3.598848E-2,-2.3016478E-1,6.747327E-2,2.0978682E0,-6.535298E-1,4.637479E-2,3.597863E-1,5.4792105E-3,-3.2044974E-1,-2.1300511E-3,2.1914954E-1,-1.23905845E-1,-3.882802E-4,2.161112E-1,-1.4294815E-1,-1.08823456E-1,8.599196E-3,4.5370713E-2,9.103626E-2,8.630121E-2,5.0788783E-2,-4.2988338E-2,6.0350098E-2,-1.32439975E-2,-9.26335E-2,6.427106E-2,-1.7256433E-2,-3.1873394E-2,-1.131951E-1,-7.280573E-3,5.1248875E-2,9.2771053E-1,1.072664E-1,-2.2952768E-1,1.3808946E-1,1.3328502E-1,9.514766E-3,1.2329188E-1,-7.023364E-1],"categories":[],"categories_nodes":[],"categories_segments":[],"categories_sizes":[],"default_left":[0,0,0,0,0,0,0,0,0,0,0,0,0,0,0,0,0,0,0,0,0,0,0,0,0,0,0,0,0,0,0,0,0,0,0,0,0,0,0,0,0,0,0,0,0,0,0,0,0,0,0,0,0,0,0,0,0,0,0,0,0,0,0],"id":12,"left_children":[1,3,5,7,9,11,13,15,17,19,21,23,25,27,29,31,33,35,37,39,41,43,45,47,49,51,53,55,57,59,61,-1,-1,-1,-1,-1,-1,-1,-1,-1,-1,-1,-1,-1,-1,-1,-1,-1,-1,-1,-1,-1,-1,-1,-1,-1,-1,-1,-1,-1,-1,-1,-1],"loss_changes":[5.379907E2,1.9862909E2,1.6016574E2,4.158641E1,5.554956E1,9.286127E1,2.8512024E1,1.2308833E1,3.180983E1,7.4272575E1,2.145935E1,9.166528E1,3.4899876E1,6.2932827E1,3.4460545E1,4.9395037E0,9.665461E0,2.7414307E1,5.1526833E0,3.0003986E1,2.1799026E1,1.3532043E1,1.7783522E1,4.013672E1,9.77294E0,9.4966545E0,1.5144854E1,1.46391945E1,1.2752651E1,1.2630917E1,5.8847374E1,0E0,0E0,0E0,0E0,0E0,0E0,0E0,0E0,0E0,0E0,0E0,0E0,0E0,0E0,0E0,0E0,0E0,0E0,0E0,0E0,0E0,0E0,0E0,0E0,0E0,0E0,0E0,0E0,0E0,0E0,0E0,0E0],"parents":[2147483647,0,0,1,1,2,2,3,3,4,4,5,5,6,6,7,7,8,8,9,9,10,10,11,11,12,12,13,13,14,14,15,15,16,16,17,17,18,18,19,19,20,20,21,21,22,22,23,23,24,24,25,25,26,26,27,27,28,28,29,29,30,30],"right_children":[2,4,6,8,10,12,14,16,18,20,22,24,26,28,30,32,34,36,38,40,42,44,46,48,50,52,54,56,58,60,62,-1,-1,-1,-1,-1,-1,-1,-1,-1,-1,-1,-1,-1,-1,-1,-1,-1,-1,-1,-1,-1,-1,-1,-1,-1,-1,-1,-1,-1,-1,-1,-1],"split_conditions":[1E0,4E0,1E0,5E0,1E1,9E0,2E0,1E0,1E0,2.87E1,1E0,1.2E1,6E0,1.905E1,3E0,2.584E1,2.586E1,1E0,1E0,5E0,1E0,1E0,3E0,6E0,6E0,7E0,2.1E1,3E0,5E0,1.905E1,4.724E1,5.4792105E-3,-3.2044974E-1,-2.1300511E-3,2.1914954E-1,-1.23905845E-1,-3.882802E-4,2.161112E-1,-1.4294815E-1,-1.08823456E-1,8.599196E-3,4.5370713E-2,9.103626E-2,8.630121E-2,5.0788783E-2,-4.2988338E-2,6.0350098E-2,-1.32439975E-2,-9.26335E-2,6.427106E-2,-1.7256433E-2,-3.1873394E-2,-1.131951E-1,-7.280573E-3,5.1248875E-2,9.2771053E-1,1.072664E-1,-2.2952768E-1,1.3808946E-1,1.3328502E-1,9.514766E-3,1.2329188E-1,-7.023364E-1],"split_indices":[12,13,9,3,13,0,13,13,6,1,14,13,13,1,14,1,1,9,7,13,0,15,14,3,3,3,0,0,14,1,1,0,0,0,0,0,0,0,0,0,0,0,0,0,0,0,0,0,0,0,0,0,0,0,0,0,0,0,0,0,0,0,0],"split_type":[0,0,0,0,0,0,0,0,0,0,0,0,0,0,0,0,0,0,0,0,0,0,0,0,0,0,0,0,0,0,0,0,0,0,0,0,0,0,0,0,0,0,0,0,0,0,0,0,0,0,0,0,0,0,0,0,0,0,0,0,0,0,0],"sum_hessian":[2.9584117E4,1.5464798E4,1.4119319E4,1.2469677E3,1.421783E4,1.1427855E4,2.691464E3,1.0053631E2,1.1464313E3,8.487284E3,5.730546E3,9.3101E3,2.1177554E3,1.0689075E2,2.5845735E3,1.6365198E1,8.417111E1,1.1101711E3,3.6260223E1,3.927939E3,4.559345E3,5.1126357E3,6.1791003E2,7.499583E3,1.8105167E3,5.2198755E2,1.5957677E3,8.097188E0,9.8793564E1,2.1668748E3,4.1769882E2,1.0398933E1,5.9662647E0,2.5220324E1,5.895079E1,9.1371155E2,1.9645953E2,3.2927338E1,3.3328848E0,2.0572173E2,3.722217E3,3.2297097E3,1.3296353E3,3.8118757E3,1.3007601E3,2.5289586E2,3.6501416E2,6.256597E2,6.8739233E3,1.4274844E2,1.6677682E3,2.8429688E2,2.3769069E2,8.457884E2,7.499794E2,4.6583033E0,3.4388847E0,9.0083755E1,8.709806E0,7.594974E1,2.0909248E3,4.1076205E2,6.9367733E0],"tree_param":{"num_deleted":"0","num_feature":"17","num_nodes":"63","size_leaf_vector":"0"}},{"base_weights":[2.5577075E-3,-1.2951925E-2,2.028285E-1,5.6764316E-3,-1.57909E-1,1.8205623E-1,4.8542804E-1,1.3694376E-1,-1.1787925E-2,-1.7744903E-1,5.0179803E-1,1.3289657E-1,2.8536436E-1,4.3542814E-1,3.052223E-1,-1.4680657E-1,1.4872359E-1,6.26826E-2,-3.3644766E-2,-1.9000936E-1,5.032271E-1,1.4067427E0,3.9407888E-1,2.5438648E-1,6.4612485E-2,4.7520617E-1,2.6414728E-1,4.6148598E-1,-1.7305595E-1,-1.1463792E-1,8.926385E-2,3.6723986E-2,7.8295544E-2,3.7560783E-2,-1.8268431E-3,-6.375653E-3,-4.393856E-2,-8.227958E-2,-2.7413096E-2,4.0833205E-1,1.7489852E-2,6.9965225E-1,-2.8061834E-1,-5.2267183E-2,2.4117054E-1,6.564965E-2,1.1941256E-1,3.6620528E-2,-3.444966E-2,1.9128959E-1,3.9205063E-2,6.690734E-2,1.1735963E-1,1.4321673E-1,-1.6420874E-1],"categories":[],"categories_nodes":[],"categories_segments":[],"categories_sizes":[],"default_left":[0,0,0,0,0,0,0,0,0,0,0,0,0,0,0,0,0,0,0,0,0,0,0,0,0,0,0,0,0,0,0,0,0,0,0,0,0,0,0,0,0,0,0,0,0,0,0,0,0,0,0,0,0,0,0],"id":13,"left_children":[1,3,5,7,9,11,13,15,17,19,21,23,25,27,-1,29,31,33,35,37,39,41,43,45,47,49,51,53,-1,-1,-1,-1,-1,-1,-1,-1,-1,-1,-1,-1,-1,-1,-1,-1,-1,-1,-1,-1,-1,-1,-1,-1,-1,-1,-1],"loss_changes":[9.0843254E1,7.329949E1,1.2251717E1,5.5146225E1,3.9935745E1,9.915146E0,3.3695908E0,9.463104E0,3.4559235E1,2.5769287E1,8.139288E0,1.1015242E1,2.4161644E0,3.768406E0,0E0,1.1939091E1,7.979782E0,2.0714869E1,2.2945408E1,2.4484322E1,2.0792648E1,2.1900324E1,1.9025408E1,2.35503E0,8.804935E0,3.3964005E0,2.8900032E0,2.3469028E0,0E0,0E0,0E0,0E0,0E0,0E0,0E0,0E0,0E0,0E0,0E0,0E0,0E0,0E0,0E0,0E0,0E0,0E0,0E0,0E0,0E0,0E0,0E0,0E0,0E0,0E0,0E0],"parents":[2147483647,0,0,1,1,2,2,3,3,4,4,5,5,6,6,7,7,8,8,9,9,10,10,11,11,12,12,13,13,15,15,16,16,17,17,18,18,19,19,20,20,21,21,22,22,23,23,24,24,25,25,26,26,27,27],"right_children":[2,4,6,8,10,12,14,16,18,20,22,24,26,28,-1,30,32,34,36,38,40,42,44,46,48,50,52,54,-1,-1,-1,-1,-1,-1,-1,-1,-1,-1,-1,-1,-1,-1,-1,-1,-1,-1,-1,-1,-1,-1,-1,-1,-1,-1,-1],"split_conditions":[1E0,4E0,4E0,6E0,2.5E1,3E0,2.1E1,3E0,2E0,1.8E1,2.6E1,7E0,5E0,1E1,3.052223E-1,2.5E1,3E0,1E0,7E0,8E0,2.9E1,8E0,7E0,3E0,3E0,1.1E1,9E0,8E0,-1.7305595E-1,-1.1463792E-1,8.926385E-2,3.6723986E-2,7.8295544E-2,3.7560783E-2,-1.8268431E-3,-6.375653E-3,-4.393856E-2,-8.227958E-2,-2.7413096E-2,4.0833205E-1,1.7489852E-2,6.9965225E-1,-2.8061834E-1,-5.2267183E-2,2.4117054E-1,6.564965E-2,1.1941256E-1,3.6620528E-2,-3.444966E-2,1.9128959E-1,3.9205063E-2,6.690734E-2,1.1735963E-1,1.4321673E-1,-1.6420874E-1],"split_indices":[6,16,16,3,0,15,2,3,16,2,0,3,3,3,0,2,16,7,2,3,2,3,3,16,16,0,0,2,0,0,0,0,0,0,0,0,0,0,0,0,0,0,0,0,0,0,0,0,0,0,0,0,0,0,0],"split_type":[0,0,0,0,0,0,0,0,0,0,0,0,0,0,0,0,0,0,0,0,0,0,0,0,0,0,0,0,0,0,0,0,0,0,0,0,0,0,0,0,0,0,0,0,0,0,0,0,0,0,0,0,0,0,0],"sum_hessian":[2.924463E4,2.7143484E4,2.101146E3,2.4053361E4,3.0901238E3,1.9588094E3,1.4233661E2,2.8235881E3,2.1229773E4,3.0019397E3,8.818412E1,1.3287865E3,6.30023E2,1.3177023E2,1.0566364E1,1.1209127E2,2.7114968E3,4.8166475E3,1.6413127E4,2.948257E3,5.3682507E1,8.097549E0,8.008657E1,4.7714053E2,8.51646E2,6.118315E1,5.6883984E2,1.2899384E2,2.776408E0,7.337399E1,3.871728E1,2.1983647E3,5.1313196E2,2.5225771E3,2.2940703E3,1.4789713E4,1.6234135E3,1.5890464E3,1.3592107E3,1.7630121E1,3.6052383E1,5.8072333E0,2.2903159E0,3.3796177E1,4.6290394E1,3.845009E2,9.2639626E1,6.453369E2,2.0630905E2,4.1001945E1,2.0181206E1,4.3182587E2,1.3701395E2,1.275106E2,1.4832312E0],"tree_param":{"num_deleted":"0","num_feature":"17","num_nodes":"55","size_leaf_vector":"0"}},{"base_weights":[2.7399932E-3,-7.0242874E-2,3.7553474E-2,3.6784526E-2,-1.4764062E-1,2.5223112E-2,1.9351617E-1,-2.7926683E-1,6.542006E-2,-1.7839819E-1,2.5697464E-1,3.4385394E-2,-1.6233838E-1,1.3734402E-1,2.9641783E-1,-3.2503602E-1,9.1465104E-1,3.4633535E-1,4.8365265E-2,-2.2223552E-1,4.5568068E-2,1.5377735E-1,1.4011685E0,6.351112E-2,-5.652594E-3,-3.0173934E-1,-3.261738E-2,1.4560579E-1,-2.6070306E-1,4.8832944E-1,1.8477239E-1,4.8529882E-2,-1.3024305E-1,-7.724975E-2,3.8132545E-1,-6.2990084E-2,1.5653E-1,9.820274E-3,9.118093E-2,8.8068284E-4,-7.905822E-2,5.1212773E-2,-2.826487E-2,1.1322689E-1,-4.943575E-3,6.538033E-1,1.501553E-1,3.0861959E-2,-3.908801E-3,-3.898579E-3,6.750182E-2,-6.401213E-2,-3.1678653E-1,5.1319124E-3,-1.5791938E-1,5.248856E-2,1.786654E-2,-3.0439612E-1,1.22507475E-1,1.9953988E-1,1.03540696E-1,5.9882566E-2,-5.500641E-1],"categories":[],"categories_nodes":[],"categories_segments":[],"categories_sizes":[],"default_left":[0,0,0,0,0,0,0,0,0,0,0,0,0,0,0,0,0,0,0,0,0,0,0,0,0,0,0,0,0,0,0,0,0,0,0,0,0,0,0,0,0,0,0,0,0,0,0,0,0,0,0,0,0,0,0,0,0,0,0,0,0,0,0],"id":14,"left_children":[1,3,5,7,9,11,13,15,17,19,21,23,25,27,29,31,33,35,37,39,41,43,45,47,49,51,53,55,57,59,61,-1,-1,-1,-1,-1,-1,-1,-1,-1,-1,-1,-1,-1,-1,-1,-1,-1,-1,-1,-1,-1,-1,-1,-1,-1,-1,-1,-1,-1,-1,-1,-1],"loss_changes":[7.391811E1,7.783592E1,3.7873802E1,3.57115E1,6.79055E1,3.1376518E1,8.300056E0,1.8211706E1,1.7312307E1,4.9769577E1,4.531874E1,2.0297575E1,1.5367889E1,3.1137733E0,1.080888E1,1.6879086E1,5.4936714E0,2.0298054E1,1.3617136E1,3.9411087E1,1.4542861E1,1.3517809E1,2.1182678E1,3.0358002E1,1.2418419E1,2.7085068E1,1.0851638E1,2.3058395E0,1.0188637E1,4.4916E0,1.0044039E1,0E0,0E0,0E0,0E0,0E0,0E0,0E0,0E0,0E0,0E0,0E0,0E0,0E0,0E0,0E0,0E0,0E0,0E0,0E0,0E0,0E0,0E0,0E0,0E0,0E0,0E0,0E0,0E0,0E0,0E0,0E0,0E0],"parents":[2147483647,0,0,1,1,2,2,3,3,4,4,5,5,6,6,7,7,8,8,9,9,10,10,11,11,12,12,13,13,14,14,15,15,16,16,17,17,18,18,19,19,20,20,21,21,22,22,23,23,24,24,25,25,26,26,27,27,28,28,29,29,30,30],"right_children":[2,4,6,8,10,12,14,16,18,20,22,24,26,28,30,32,34,36,38,40,42,44,46,48,50,52,54,56,58,60,62,-1,-1,-1,-1,-1,-1,-1,-1,-1,-1,-1,-1,-1,-1,-1,-1,-1,-1,-1,-1,-1,-1,-1,-1,-1,-1,-1,-1,-1,-1,-1,-1],"split_conditions":[8E0,7E0,1E0,2E0,3E1,1E0,1E0,1E0,4E0,1E0,4E0,3E0,8E0,1E0,5E0,5E0,2E0,1E0,1E0,2E0,1E0,4E0,5E0,1E0,1.5E1,4E0,1.3E1,1.2E1,1.1E1,1E1,4E0,4.8529882E-2,-1.3024305E-1,-7.724975E-2,3.8132545E-1,-6.2990084E-2,1.5653E-1,9.820274E-3,9.118093E-2,8.8068284E-4,-7.905822E-2,5.1212773E-2,-2.826487E-2,1.1322689E-1,-4.943575E-3,6.538033E-1,1.501553E-1,3.0861959E-2,-3.908801E-3,-3.898579E-3,6.750182E-2,-6.401213E-2,-3.1678653E-1,5.1319124E-3,-1.5791938E-1,5.248856E-2,1.786654E-2,-3.0439612E-1,1.22507475E-1,1.9953988E-1,1.03540696E-1,5.9882566E-2,-5.500641E-1],"split_indices":[13,3,10,13,0,5,0,10,3,9,16,16,3,5,0,3,16,0,10,16,0,2,13,7,2,16,2,13,13,13,16,0,0,0,0,0,0,0,0,0,0,0,0,0,0,0,0,0,0,0,0,0,0,0,0,0,0,0,0,0,0,0,0],"split_type":[0,0,0,0,0,0,0,0,0,0,0,0,0,0,0,0,0,0,0,0,0,0,0,0,0,0,0,0,0,0,0,0,0,0,0,0,0,0,0,0,0,0,0,0,0,0,0,0,0,0,0,0,0,0,0,0,0,0,0,0,0,0,0],"sum_hessian":[2.9090559E4,9.394644E3,1.9695916E4,3.9428723E3,5.451771E3,1.8253928E4,1.4419884E3,3.2683472E2,3.6160376E3,5.067142E3,3.8462912E2,1.7404541E4,8.493863E2,9.343037E2,5.0768466E2,3.1546887E2,1.1365832E1,2.0586465E2,3.4101729E3,4.2376973E3,8.294446E2,3.5384912E2,3.078001E1,1.0074927E4,7.329614E3,4.0877832E2,4.40608E2,9.159271E2,1.8376556E1,1.8548074E2,3.2220392E2,5.767208E1,2.577968E2,2.7149966E0,8.650835E0,4.9308327E1,1.5655632E2,3.214687E3,1.9548586E2,6.5682983E2,3.5808674E3,4.3752838E2,3.9191623E2,1.5241815E2,2.0143097E2,1.5751092E1,1.5028919E1,6.6531177E3,3.421809E3,7.1043994E3,2.2521411E2,3.6705615E2,4.1722187E1,4.01175E2,3.943301E1,6.8217175E2,2.337554E2,8.397295E0,9.979261E0,8.136868E1,1.0411207E2,3.2074728E2,1.4566301E0],"tree_param":{"num_deleted":"0","num_feature":"17","num_nodes":"63","size_leaf_vector":"0"}},{"base_weights":[-3.612665E-3,-1.297629E-1,1.1534665E-2,-1.8845728E-1,3.2785486E-2,4.0887106E-2,-3.2968618E-2,-3.7982205E-1,-1.562677E-1,-1.0351164E-2,4.7094342E-1,2.4677306E-2,1.1712975E-1,-1.3949536E-2,-1.3088182E-1,-4.271132E-1,3.3017668E-1,-6.483007E-2,-2.499206E-1,-2.3160754E-1,2.493972E-2,9.3125276E-2,7.817211E-1,3.0849697E-3,7.8136496E-2,1.7220846E-1,7.268224E-2,-1.3652714E-1,4.9118674E-3,-1.7350678E-1,1.6145086E-1,-9.786532E-2,-2.0559539E-1,-8.141881E-3,-1.6559087E-1,-7.108964E-2,-3.203185E-1,-1.6862446E-1,7.350446E-2,3.9195836E-2,-2.555406E-2,1.7564906E-1,-3.1548643E-1,3.591116E-1,1.5813856E-1,3.767623E-2,-3.0543888E-3,2.9721135E-2,7.744945E-3,4.1665047E-2,1.1602412E-1,-4.2632563E-4,3.167664E-2,-5.622373E-2,6.147382E-2,1.0273807E-2,-2.5930684E-2,-4.6620768E-2,-1.3270071E-1,5.866234E-2,-1.5814142E-2],"categories":[],"categories_nodes":[],"categories_segments":[],"categories_sizes":[],"default_left":[0,0,0,0,0,0,0,0,0,0,0,0,0,0,0,0,0,0,0,0,0,0,0,0,0,0,0,0,0,0,0,0,0,0,0,0,0,0,0,0,0,0,0,0,0,0,0,0,0,0,0,0,0,0,0,0,0,0,0,0,0],"id":15,"left_children":[1,3,5,7,9,11,13,15,17,19,21,23,25,27,29,31,-1,33,35,37,39,41,43,45,47,49,51,53,55,57,59,-1,-1,-1,-1,-1,-1,-1,-1,-1,-1,-1,-1,-1,-1,-1,-1,-1,-1,-1,-1,-1,-1,-1,-1,-1,-1,-1,-1,-1,-1],"loss_changes":[5.4851353E1,2.9365334E1,3.3479126E1,1.3868477E1,1.5451078E1,1.9083174E1,1.8966751E1,2.3214111E1,1.6572498E1,5.822702E0,8.530012E0,1.4702067E1,6.61557E0,1.972276E1,2.0670845E1,7.996544E0,0E0,1.8006317E1,9.882397E0,1.6294462E1,7.500889E0,1.9893421E1,3.6053238E0,1.4747125E1,4.010891E0,8.585613E0,3.6579905E0,1.9803198E1,1.9815332E1,6.9703445E0,1.553237E0,0E0,0E0,0E0,0E0,0E0,0E0,0E0,0E0,0E0,0E0,0E0,0E0,0E0,0E0,0E0,0E0,0E0,0E0,0E0,0E0,0E0,0E0,0E0,0E0,0E0,0E0,0E0,0E0,0E0,0E0],"parents":[2147483647,0,0,1,1,2,2,3,3,4,4,5,5,6,6,7,7,8,8,9,9,10,10,11,11,12,12,13,13,14,14,15,15,17,17,18,18,19,19,20,20,21,21,22,22,23,23,24,24,25,25,26,26,27,27,28,28,29,29,30,30],"right_children":[2,4,6,8,10,12,14,16,18,20,22,24,26,28,30,32,-1,34,36,38,40,42,44,46,48,50,52,54,56,58,60,-1,-1,-1,-1,-1,-1,-1,-1,-1,-1,-1,-1,-1,-1,-1,-1,-1,-1,-1,-1,-1,-1,-1,-1,-1,-1,-1,-1,-1,-1],"split_conditions":[5E0,1.1E1,3E0,1E0,4E0,1E0,1E0,1E0,3E0,1E0,3E1,1.1E1,1E0,7E0,3E0,4E0,3.3017668E-1,1E0,1E0,3E1,2.6E1,1.8E1,2E0,1E0,1E0,1E0,8E0,1E0,4E0,1E0,2E0,-9.786532E-2,-2.0559539E-1,-8.141881E-3,-1.6559087E-1,-7.108964E-2,-3.203185E-1,-1.6862446E-1,7.350446E-2,3.9195836E-2,-2.555406E-2,1.7564906E-1,-3.1548643E-1,3.591116E-1,1.5813856E-1,3.767623E-2,-3.0543888E-3,2.9721135E-2,7.744945E-3,4.1665047E-2,1.1602412E-1,-4.2632563E-4,3.167664E-2,-5.622373E-2,6.147382E-2,1.0273807E-2,-2.5930684E-2,-4.6620768E-2,-1.3270071E-1,5.866234E-2,-1.5814142E-2],"split_indices":[13,0,16,13,16,9,11,6,16,13,0,13,8,13,15,0,0,5,11,0,0,0,13,16,15,6,13,9,16,5,0,0,0,0,0,0,0,0,0,0,0,0,0,0,0,0,0,0,0,0,0,0,0,0,0,0,0,0,0,0,0],"split_type":[0,0,0,0,0,0,0,0,0,0,0,0,0,0,0,0,0,0,0,0,0,0,0,0,0,0,0,0,0,0,0,0,0,0,0,0,0,0,0,0,0,0,0,0,0,0,0,0,0,0,0,0,0,0,0,0,0,0,0,0,0],"sum_hessian":[2.870359E4,3.0762607E3,2.562733E4,2.26003E3,8.1623065E2,1.5442322E4,1.0185008E4,3.2386664E2,1.9361635E3,7.439638E2,7.226686E1,1.2735893E4,2.70643E3,8.529368E3,1.655639E3,3.1453058E2,9.336071E0,9.8052454E2,9.5563885E2,1.0157514E2,6.423887E2,3.3202106E1,3.906476E1,9.072527E3,3.6633652E3,1.2073835E3,1.4990463E3,1.1365902E3,7.3927783E3,1.4453058E3,2.1033327E2,2.2778517E2,8.674541E1,9.1108844E2,6.943611E1,9.4200604E2,1.3632847E1,5.987826E1,4.169688E1,3.2765732E2,3.1473135E2,2.3558012E1,9.6440935E0,1.3439345E1,2.5625412E1,8.856696E2,8.186858E3,2.6158389E3,1.0475264E3,1.0464781E3,1.6090543E2,4.612652E2,1.0377811E3,9.89565E2,1.4702522E2,5.5962847E3,1.7964935E3,1.3555918E3,8.9713974E1,1.815254E2,2.8807854E1],"tree_param":{"num_deleted":"0","num_feature":"17","num_nodes":"61","size_leaf_vector":"0"}},{"base_weights":[1.7273749E-3,9.923687E-2,-1.0443179E-1,-8.666101E-2,1.13696165E-1,-1.2791616E-1,-4.4025045E-2,-1.05930425E-1,6.5388745E-1,7.2661005E-2,1.4450896E-1,-1.407068E-1,5.357272E-2,-1.8574232E-2,-1.4302605E-1,2.3145372E-1,-1.3084938E-1,-1.3675347E-1,8.7580866E-1,2.8174492E-2,1.6290744E-1,7.5144194E-2,1.6946983E-1,-4.229003E-1,-1.3542156E-1,8.633255E-1,2.8715566E-2,-2.8958427E-2,2.8575897E-1,-1.8060078E-1,4.82876E-1,6.497725E-3,4.6571508E-1,-9.179391E-2,-9.636547E-3,-3.090232E-1,1.1887237E-1,4.862289E-1,1.4030781E-1,4.221121E-3,8.0110624E-2,1.8467063E-1,3.886412E-2,2.5965106E-2,-8.337211E-2,5.647478E-2,2.7120281E-2,4.8945997E-2,-1.8218139E-1,-5.5045965E-3,-4.396364E-2,-3.8780373E-1,3.2615328E-1,6.251449E-2,-2.4949158E-2,-1.02836555E-2,1.5367813E-1,1.18295945E-1,-3.901224E-1,-4.868845E-2,-6.156079E-1,1.872591E-1,-3.4234577E-1],"categories":[],"categories_nodes":[],"categories_segments":[],"categories_sizes":[],"default_left":[0,0,0,0,0,0,0,0,0,0,0,0,0,0,0,0,0,0,0,0,0,0,0,0,0,0,0,0,0,0,0,0,0,0,0,0,0,0,0,0,0,0,0,0,0,0,0,0,0,0,0,0,0,0,0,0,0,0,0,0,0,0,0],"id":16,"left_children":[1,3,5,7,9,11,13,15,17,19,21,23,25,27,29,31,33,35,37,39,41,43,45,47,49,51,53,55,57,59,61,-1,-1,-1,-1,-1,-1,-1,-1,-1,-1,-1,-1,-1,-1,-1,-1,-1,-1,-1,-1,-1,-1,-1,-1,-1,-1,-1,-1,-1,-1,-1,-1],"loss_changes":[2.956658E2,4.002748E1,1.939357E1,1.5409197E1,1.7455765E1,2.2863983E1,9.646662E0,8.845976E0,4.9276505E0,2.3787643E1,1.3645599E1,1.36614685E1,1.3037537E1,9.639458E0,1.850235E1,2.0052822E1,1.6884396E1,3.6794536E0,5.7880306E0,1.3373142E1,2.946561E1,8.437609E0,8.595642E0,1.8320389E1,1.1757858E1,1.0716914E1,1.269428E1,8.506222E0,1.784398E1,2.4997625E1,1.0952324E1,0E0,0E0,0E0,0E0,0E0,0E0,0E0,0E0,0E0,0E0,0E0,0E0,0E0,0E0,0E0,0E0,0E0,0E0,0E0,0E0,0E0,0E0,0E0,0E0,0E0,0E0,0E0,0E0,0E0,0E0,0E0,0E0],"parents":[2147483647,0,0,1,1,2,2,3,3,4,4,5,5,6,6,7,7,8,8,9,9,10,10,11,11,12,12,13,13,14,14,15,15,16,16,17,17,18,18,19,19,20,20,21,21,22,22,23,23,24,24,25,25,26,26,27,27,28,28,29,29,30,30],"right_children":[2,4,6,8,10,12,14,16,18,20,22,24,26,28,30,32,34,36,38,40,42,44,46,48,50,52,54,56,58,60,62,-1,-1,-1,-1,-1,-1,-1,-1,-1,-1,-1,-1,-1,-1,-1,-1,-1,-1,-1,-1,-1,-1,-1,-1,-1,-1,-1,-1,-1,-1,-1,-1],"split_conditions":[1E0,4E0,1.1E1,1E0,9E0,1E0,1E0,2.02E1,1E0,3.19E1,2.51E1,1E0,2E0,1E0,3.766E1,1E0,2.585E1,1E0,2.532E1,1E0,3.228E1,2.509E1,3.325E1,2.09E1,4E0,1E0,2.657E1,4.48E1,2E0,3.603E1,4.724E1,6.497725E-3,4.6571508E-1,-9.179391E-2,-9.636547E-3,-3.090232E-1,1.1887237E-1,4.862289E-1,1.4030781E-1,4.221121E-3,8.0110624E-2,1.8467063E-1,3.886412E-2,2.5965106E-2,-8.337211E-2,5.647478E-2,2.7120281E-2,4.8945997E-2,-1.8218139E-1,-5.5045965E-3,-4.396364E-2,-3.8780373E-1,3.2615328E-1,6.251449E-2,-2.4949158E-2,-1.02836555E-2,1.5367813E-1,1.18295945E-1,-3.901224E-1,-4.868845E-2,-6.156079E-1,1.872591E-1,-3.4234577E-1],"split_indices":[12,13,13,10,13,6,11,1,8,1,1,13,13,5,1,5,1,7,1,6,1,1,1,1,13,8,1,1,15,1,1,0,0,0,0,0,0,0,0,0,0,0,0,0,0,0,0,0,0,0,0,0,0,0,0,0,0,0,0,0,0,0,0],"split_type":[0,0,0,0,0,0,0,0,0,0,0,0,0,0,0,0,0,0,0,0,0,0,0,0,0,0,0,0,0,0,0,0,0,0,0,0,0,0,0,0,0,0,0,0,0,0,0,0,0,0,0,0,0,0,0,0,0,0,0,0,0,0,0],"sum_hessian":[2.856053E4,1.4886772E4,1.3673757E4,1.0739823E3,1.381279E4,9.845141E3,3.8286167E3,1.0475807E3,2.6401583E1,5.9252075E3,7.8875825E3,9.197183E3,6.479581E2,3.0465967E3,7.8202014E2,7.1481804E1,9.7609894E2,5.8704925E0,2.053109E1,3.9696846E3,1.9555232E3,2.0883096E3,5.799273E3,1.6763577E2,9.029547E3,1.8293491E1,6.296647E2,2.9469482E3,9.964836E1,7.384031E2,4.361704E1,6.25619E1,8.9199E0,3.5113327E2,6.249657E2,1.8452111E0,4.0252814E0,6.2150755E0,1.4316014E1,3.7493542E3,2.2033028E2,1.3302856E2,1.8224946E3,2.0236844E3,6.462504E1,4.6851387E3,1.1141344E3,4.0144596E1,1.2749117E2,7.837422E2,8.245805E3,1.2715927E0,1.7021898E1,2.4130031E2,3.8836435E2,2.919188E3,2.7760277E1,9.396836E1,5.6800036E0,7.3232635E2,6.0767694E0,4.0691742E1,2.925295E0],"tree_param":{"num_deleted":"0","num_feature":"17","num_nodes":"63","size_leaf_vector":"0"}},{"base_weights":[1.9374343E-3,6.593356E-2,-6.7288615E-2,-2.9757076E-3,9.949218E-2,1.1546236E-3,-1.8553142E-1,-8.399061E-2,7.153194E-2,9.348088E-2,3.8871536E-1,-6.0111854E-2,6.2261183E-2,3.678797E-1,-1.9839351E-1,-2.0998271E-1,2.3892406E-2,-2.742826E-1,9.465425E-2,1.1369932E-1,3.968969E-3,4.4164637E-1,-7.711745E-2,2.022128E-1,-7.471483E-2,1.8059066E-1,2.6567928E-2,1.8877423E0,1.27761E-1,-2.124727E-1,8.613618E-2,-4.8959393E-2,-1.4770198E-1,1.06751285E-1,-1.907095E-2,-3.0633481E-2,-2.6072043E-1,8.176333E-2,1.5266461E-2,2.6072925E-2,6.02306E-2,-8.965464E-3,6.359774E-2,1.6578546E-1,9.313638E-2,-7.3437E-2,3.980156E-1,-2.9680796E-2,1.4821993E-1,1.429253E-3,-3.5743594E-2,1.253309E-1,-1.1232094E-2,3.294753E-2,-1.4741444E-2,-2.7283806E-1,7.5164586E-1,1.3741602E-1,-4.7429763E-2,-1.1338166E-1,-5.5013236E-2,7.5770183E-3,2.0602375E-1],"categories":[],"categories_nodes":[],"categories_segments":[],"categories_sizes":[],"default_left":[0,0,0,0,0,0,0,0,0,0,0,0,0,0,0,0,0,0,0,0,0,0,0,0,0,0,0,0,0,0,0,0,0,0,0,0,0,0,0,0,0,0,0,0,0,0,0,0,0,0,0,0,0,0,0,0,0,0,0,0,0,0,0],"id":17,"left_children":[1,3,5,7,9,11,13,15,17,19,21,23,25,27,29,31,33,35,37,39,41,43,45,47,49,51,53,55,57,59,61,-1,-1,-1,-1,-1,-1,-1,-1,-1,-1,-1,-1,-1,-1,-1,-1,-1,-1,-1,-1,-1,-1,-1,-1,-1,-1,-1,-1,-1,-1,-1,-1],"loss_changes":[1.25577225E2,3.4061646E1,1.1019742E2,2.9129915E1,1.7185226E1,3.2295296E1,3.560698E1,3.1429934E1,2.0127216E1,1.7563606E1,4.9991856E0,1.6516172E1,1.8235998E1,4.1267635E1,1.9564835E1,1.4009014E1,3.620832E1,1.607176E1,1.8337408E1,1.844883E1,1.2606877E1,2.4631119E0,5.3614125E0,2.0036837E1,1.4412275E1,5.1762684E1,2.0926212E1,2.8967121E1,9.447508E0,2.23152E1,8.420733E0,0E0,0E0,0E0,0E0,0E0,0E0,0E0,0E0,0E0,0E0,0E0,0E0,0E0,0E0,0E0,0E0,0E0,0E0,0E0,0E0,0E0,0E0,0E0,0E0,0E0,0E0,0E0,0E0,0E0,0E0,0E0,0E0],"parents":[2147483647,0,0,1,1,2,2,3,3,4,4,5,5,6,6,7,7,8,8,9,9,10,10,11,11,12,12,13,13,14,14,15,15,16,16,17,17,18,18,19,19,20,20,21,21,22,22,23,23,24,24,25,25,26,26,27,27,28,28,29,29,30,30],"right_children":[2,4,6,8,10,12,14,16,18,20,22,24,26,28,30,32,34,36,38,40,42,44,46,48,50,52,54,56,58,60,62,-1,-1,-1,-1,-1,-1,-1,-1,-1,-1,-1,-1,-1,-1,-1,-1,-1,-1,-1,-1,-1,-1,-1,-1,-1,-1,-1,-1,-1,-1,-1,-1],"split_conditions":[1E0,8E0,3E0,1E0,4.285E1,1E0,5E0,2.889E1,2E0,1E0,9E0,2.02E1,7E0,3E0,1E0,2.791E1,3.029E1,3.014E1,2.495E1,1E0,1E0,1E0,4E0,8E0,7E0,2.965E1,1E0,4E0,8E0,6E0,1.1E1,-4.8959393E-2,-1.4770198E-1,1.06751285E-1,-1.907095E-2,-3.0633481E-2,-2.6072043E-1,8.176333E-2,1.5266461E-2,2.6072925E-2,6.02306E-2,-8.965464E-3,6.359774E-2,1.6578546E-1,9.313638E-2,-7.3437E-2,3.980156E-1,-2.9680796E-2,1.4821993E-1,1.429253E-3,-3.5743594E-2,1.253309E-1,-1.1232094E-2,3.294753E-2,-1.4741444E-2,-2.7283806E-1,7.5164586E-1,1.3741602E-1,-4.7429763E-2,-1.1338166E-1,-5.5013236E-2,7.5770183E-3,2.0602375E-1],"split_indices":[12,13,16,4,1,4,3,1,13,7,3,1,13,13,6,1,1,1,1,2,6,2,16,3,3,1,8,3,13,13,2,0,0,0,0,0,0,0,0,0,0,0,0,0,0,0,0,0,0,0,0,0,0,0,0,0,0,0,0,0,0,0,0],"split_type":[0,0,0,0,0,0,0,0,0,0,0,0,0,0,0,0,0,0,0,0,0,0,0,0,0,0,0,0,0,0,0,0,0,0,0,0,0,0,0,0,0,0,0,0,0,0,0,0,0,0,0,0,0,0,0,0,0,0,0,0,0,0,0],"sum_hessian":[2.8343729E4,1.4728235E4,1.3615492E4,4.8238506E3,9.904385E3,8.624379E3,4.991114E3,2.3109465E3,2.5129043E3,9.704018E3,2.0036778E2,4.3065625E3,4.3178164E3,1.1273917E2,4.878375E3,1.0655677E3,1.2453787E3,1.5681E2,2.3560942E3,7.915777E3,1.7882407E3,1.7997029E2,2.03975E1,2.2641663E2,4.0801458E3,9.996707E2,3.3181458E3,1.444513E1,9.829404E1,4.648604E3,2.2977061E2,9.1546E2,1.5010773E2,2.5906842E2,9.8631024E2,1.22517006E2,3.4292995E1,4.6417892E2,1.8919153E3,6.0548223E3,1.8609546E3,1.53869E3,2.4955086E2,9.575838E1,8.421191E1,1.895872E1,1.4387796E0,1.11759125E2,1.1465751E2,1.4633462E3,2.6167996E3,4.7837146E2,5.2129926E2,1.5800487E3,1.7380969E3,2.5276163E0,1.1917514E1,4.5323452E1,5.2970585E1,6.9337244E2,3.9552317E3,2.0957007E2,2.0200548E1],"tree_param":{"num_deleted":"0","num_feature":"17","num_nodes":"63","size_leaf_vector":"0"}},{"base_weights":[-4.2861206E-3,-1.0488165E-2,1.783468E-1,-4.2363957E-2,2.0837158E-2,1.890415E-2,3.5583296E-1,-7.087805E-2,3.802269E-2,3.0119399E-2,-1.6026135E-1,-3.544592E-1,1.21119365E-1,7.224325E-1,2.5471088E-1,-2.1428826E-1,-4.909599E-2,7.03274E-2,-2.5642112E-1,2.2294179E-2,3.2796317E-1,-5.4843903E-2,-3.9238966E-1,1.8016253E0,-4.740909E-1,-4.8248208E-1,1.438844E-1,9.227474E-1,-4.961206E-1,-2.636667E-1,2.990994E-1,-5.6466248E-2,-1.9513573E-1,-8.9717815E-3,-4.1676495E-2,2.2567766E-2,-1.1349614E-1,-8.3579145E-2,2.7782658E-1,1.1592751E-3,2.7079714E-2,1.827362E-1,3.2132372E-2,2.4347996E-2,-1.0215396E-1,-2.5491556E-2,-2.0663133E-1,8.294679E-1,1.04509465E-1,-3.337826E-1,-5.9479054E-2,2.584004E-2,1.7080545E-1,2.940063E-1,-2.9264033E-1,3.0659294E-1,-2.4245025E-1,-4.2092398E-1,-4.1378528E-2,1.0671397E-1,-3.460804E-2],"categories":[],"categories_nodes":[],"categories_segments":[],"categories_sizes":[],"default_left":[0,0,0,0,0,0,0,0,0,0,0,0,0,0,0,0,0,0,0,0,0,0,0,0,0,0,0,0,0,0,0,0,0,0,0,0,0,0,0,0,0,0,0,0,0,0,0,0,0,0,0,0,0,0,0,0,0,0,0,0,0],"id":18,"left_children":[1,3,5,7,9,11,13,15,17,19,21,23,25,27,29,31,33,35,37,39,41,43,45,47,49,-1,51,53,55,57,59,-1,-1,-1,-1,-1,-1,-1,-1,-1,-1,-1,-1,-1,-1,-1,-1,-1,-1,-1,-1,-1,-1,-1,-1,-1,-1,-1,-1,-1,-1],"loss_changes":[3.1727781E1,2.7050959E1,2.602769E1,3.0780447E1,2.297357E1,1.8578152E1,1.5953148E1,3.0952324E1,3.346609E1,3.0287943E1,1.6284315E1,2.7844833E1,1.5272182E1,2.3297215E1,7.9651394E0,1.4734215E1,1.4831076E1,6.994173E0,9.380474E0,1.5867356E1,2.059317E1,1.7876602E1,1.8887714E1,7.0289726E0,1.737948E1,0E0,9.2386875E0,9.730339E0,7.3917513E0,3.755611E0,7.4596405E0,0E0,0E0,0E0,0E0,0E0,0E0,0E0,0E0,0E0,0E0,0E0,0E0,0E0,0E0,0E0,0E0,0E0,0E0,0E0,0E0,0E0,0E0,0E0,0E0,0E0,0E0,0E0,0E0,0E0,0E0],"parents":[2147483647,0,0,1,1,2,2,3,3,4,4,5,5,6,6,7,7,8,8,9,9,10,10,11,11,12,12,13,13,14,14,15,15,16,16,17,17,18,18,19,19,20,20,21,21,22,22,23,23,24,24,26,26,27,27,28,28,29,29,30,30],"right_children":[2,4,6,8,10,12,14,16,18,20,22,24,26,28,30,32,34,36,38,40,42,44,46,48,50,-1,52,54,56,58,60,-1,-1,-1,-1,-1,-1,-1,-1,-1,-1,-1,-1,-1,-1,-1,-1,-1,-1,-1,-1,-1,-1,-1,-1,-1,-1,-1,-1,-1,-1],"split_conditions":[5E0,1E0,1E0,1.1E1,4E0,6E0,5E0,2.344E1,1E0,3E0,9E0,1.879E1,1.905E1,1E0,2.181E1,2.5E1,1E0,4.125E1,4.48E1,3E0,2.718E1,4E0,2.663E1,3E0,2.569E1,-4.8248208E-1,3.659E1,4.724E1,2E0,3E0,3.766E1,-5.6466248E-2,-1.9513573E-1,-8.9717815E-3,-4.1676495E-2,2.2567766E-2,-1.1349614E-1,-8.3579145E-2,2.7782658E-1,1.1592751E-3,2.7079714E-2,1.827362E-1,3.2132372E-2,2.4347996E-2,-1.0215396E-1,-2.5491556E-2,-2.0663133E-1,8.294679E-1,1.04509465E-1,-3.337826E-1,-5.9479054E-2,2.584004E-2,1.7080545E-1,2.940063E-1,-2.9264033E-1,3.0659294E-1,-2.4245025E-1,-4.2092398E-1,-4.1378528E-2,1.0671397E-1,-3.460804E-2],"split_indices":[14,4,2,13,14,13,13,1,14,14,13,1,1,15,1,2,7,1,1,15,1,2,1,13,1,0,1,1,2,2,1,0,0,0,0,0,0,0,0,0,0,0,0,0,0,0,0,0,0,0,0,0,0,0,0,0,0,0,0,0,0],"split_type":[0,0,0,0,0,0,0,0,0,0,0,0,0,0,0,0,0,0,0,0,0,0,0,0,0,0,0,0,0,0,0,0,0,0,0,0,0,0,0,0,0,0,0,0,0,0,0,0,0,0,0,0,0,0,0,0,0,0,0,0,0],"sum_hessian":[2.8008164E4,2.7089184E4,9.189809E2,1.3426446E4,1.3662737E4,4.846804E2,4.343005E2,9.911012E3,3.5154348E3,1.2997387E4,6.6535004E2,1.0364105E2,3.8103934E2,9.2568016E1,3.417325E2,1.3056892E3,8.605322E3,3.1685596E3,3.4687534E2,1.2665697E4,3.316898E2,4.5840762E2,2.0694241E2,4.709182E0,9.893187E1,4.045794E0,3.7699353E2,7.970781E1,1.2860211E1,2.6564707E1,3.151678E2,1.233406E3,7.228322E1,7.091625E3,1.513698E3,3.1351611E3,3.339834E1,3.4124033E2,5.6350026E0,9.964862E3,2.7008345E3,1.4515004E2,1.8653975E2,3.1104062E2,1.47367E2,1.0221152E2,1.0473089E2,2.2892492E0,2.4199326E0,2.892927E1,7.00026E1,3.3299655E2,4.399698E1,7.784282E1,1.8649852E0,1.8048084E0,1.1055403E1,1.6305232E0,2.4934183E1,2.7741547E2,3.7752323E1],"tree_param":{"num_deleted":"0","num_feature":"17","num_nodes":"61","size_leaf_vector":"0"}},{"base_weights":[-8.490603E-4,3.9334383E-2,-4.391789E-2,-1.0917701E-1,5.0635673E-2,-8.829041E-2,2.1722982E-2,-1.4210844E-1,3.465203E-1,5.9659913E-2,-1.02586575E-1,-1.1562251E-1,1.7220734E-2,1.11803934E-1,-1.5584491E-2,-2.1303742E-1,1.4030722E-1,8.128325E-1,-4.8702326E-1,6.1678935E-2,-5.932163E-1,-1.8954445E-1,3.9960796E-1,-7.375946E-2,-2.048218E-1,-5.295486E-2,1.12543516E-1,7.589372E-2,5.250113E-1,2.3942688E-3,-1.667532E-1,-5.4689463E-2,-3.063787E-1,3.6016825E-1,6.074422E-3,1.7027119E-1,8.3801156E-1,-3.1659675E-1,3.4730442E-2,3.3575453E-2,1.2137329E-2,-8.991594E-2,-3.418798E-1,-2.2848837E-1,-3.703309E-2,3.680666E-1,7.1565054E-2,-3.1148005E-2,6.266539E-3,-6.2447596E-2,5.82066E-1,-5.4274917E-2,1.6436014E-2,2.436158E-2,2.3341233E-1,8.347643E-3,6.773761E-2,5.6574655E-1,9.505155E-2,1.1485403E-2,-1.8929724E-2,-2.794116E-1,-3.4749553E-2],"categories":[],"categories_nodes":[],"categories_segments":[],"categories_sizes":[],"default_left":[0,0,0,0,0,0,0,0,0,0,0,0,0,0,0,0,0,0,0,0,0,0,0,0,0,0,0,0,0,0,0,0,0,0,0,0,0,0,0,0,0,0,0,0,0,0,0,0,0,0,0,0,0,0,0,0,0,0,0,0,0,0,0],"id":19,"left_children":[1,3,5,7,9,11,13,15,17,19,21,23,25,27,29,31,33,35,37,39,41,43,45,47,49,51,53,55,57,59,61,-1,-1,-1,-1,-1,-1,-1,-1,-1,-1,-1,-1,-1,-1,-1,-1,-1,-1,-1,-1,-1,-1,-1,-1,-1,-1,-1,-1,-1,-1,-1,-1],"loss_changes":[4.847916E1,2.4327566E1,3.9382675E1,1.5432572E1,1.8627636E1,2.3267178E1,1.8331505E1,1.9194286E1,2.7362352E1,1.6802338E1,3.2803185E1,2.3912254E1,1.1115067E1,2.3663696E1,1.0484991E1,1.8821262E1,2.4498724E1,2.0207111E1,8.862379E0,1.3514748E1,5.9616575E0,2.4088562E1,1.448848E1,1.2417149E1,1.5049538E1,1.3206774E1,1.4629709E1,1.0591998E1,3.5537807E1,8.108778E0,1.5857676E1,0E0,0E0,0E0,0E0,0E0,0E0,0E0,0E0,0E0,0E0,0E0,0E0,0E0,0E0,0E0,0E0,0E0,0E0,0E0,0E0,0E0,0E0,0E0,0E0,0E0,0E0,0E0,0E0,0E0,0E0,0E0,0E0],"parents":[2147483647,0,0,1,1,2,2,3,3,4,4,5,5,6,6,7,7,8,8,9,9,10,10,11,11,12,12,13,13,14,14,15,15,16,16,17,17,18,18,19,19,20,20,21,21,22,22,23,23,24,24,25,25,26,26,27,27,28,28,29,29,30,30],"right_children":[2,4,6,8,10,12,14,16,18,20,22,24,26,28,30,32,34,36,38,40,42,44,46,48,50,52,54,56,58,60,62,-1,-1,-1,-1,-1,-1,-1,-1,-1,-1,-1,-1,-1,-1,-1,-1,-1,-1,-1,-1,-1,-1,-1,-1,-1,-1,-1,-1,-1,-1,-1,-1],"split_conditions":[1E0,4E0,1E0,4.037E1,1E0,3.3E1,2.486E1,4E0,4.573E1,1.3E1,1.4E1,2.763E1,1E0,2.443E1,4E0,3.744E1,2.052E1,1E0,1E0,7E0,1.1E1,2.312E1,5E0,2.586E1,1.8E1,9E0,5E0,1.1E1,4E0,1E1,2E0,-5.4689463E-2,-3.063787E-1,3.6016825E-1,6.074422E-3,1.7027119E-1,8.3801156E-1,-3.1659675E-1,3.4730442E-2,3.3575453E-2,1.2137329E-2,-8.991594E-2,-3.418798E-1,-2.2848837E-1,-3.703309E-2,3.680666E-1,7.1565054E-2,-3.1148005E-2,6.266539E-3,-6.2447596E-2,5.82066E-1,-5.4274917E-2,1.6436014E-2,2.436158E-2,2.3341233E-1,8.347643E-3,6.773761E-2,5.6574655E-1,9.505155E-2,1.1485403E-2,-1.8929724E-2,-2.794116E-1,-3.4749553E-2],"split_indices":[12,13,0,1,5,1,1,14,1,3,0,1,15,1,14,1,1,5,14,3,2,1,13,1,3,13,14,13,13,2,13,0,0,0,0,0,0,0,0,0,0,0,0,0,0,0,0,0,0,0,0,0,0,0,0,0,0,0,0,0,0,0,0],"split_type":[0,0,0,0,0,0,0,0,0,0,0,0,0,0,0,0,0,0,0,0,0,0,0,0,0,0,0,0,0,0,0,0,0,0,0,0,0,0,0,0,0,0,0,0,0,0,0,0,0,0,0,0,0,0,0,0,0,0,0,0,0,0,0],"sum_hessian":[2.801005E4,1.4490461E4,1.351959E4,1.0240929E3,1.3466368E4,8.0664272E3,5.453162E3,9.557153E2,6.8377594E1,1.27179375E4,7.484301E2,6.4067075E3,1.6597198E3,1.5964496E3,3.8567124E3,7.640652E2,1.9165007E2,4.386365E1,2.4513947E1,1.2679632E4,3.8306297E1,6.3849384E2,1.0993632E2,4.361563E3,2.0451443E3,9.5621173E2,7.035081E2,1.4698909E3,1.2655872E2,3.4476604E3,4.0905212E2,7.3725085E2,2.6814312E1,1.8578842E1,1.7307123E2,4.0175102E1,3.6885462E0,1.223156E1,1.2282387E1,3.7641257E3,8.915506E3,2.5927547E1,1.2378752E1,6.5043045E1,5.7345074E2,1.6836609E1,9.309971E1,3.3099727E3,1.0515905E3,2.0428694E3,2.2749536E0,4.3678076E2,5.1943097E2,6.7294135E2,3.0566761E1,1.1138845E3,3.5600638E2,1.5722559E1,1.1083617E2,2.227438E3,1.2202224E3,2.446114E1,3.8459097E2],"tree_param":{"num_deleted":"0","num_feature":"17","num_nodes":"63","size_leaf_vector":"0"}},{"base_weights":[-1.0718787E-2,-2.7182309E-2,8.081093E-2,2.054659E-2,-4.8061617E-2,7.906524E-2,6.2258893E-1,8.124974E-3,1.2769699E-1,-1.34021E-1,-3.407434E-2,6.767473E-2,2.5903043E-1,-3.3628754E-2,4.3259438E-2,-6.623174E-1,1.4180128E-1,-1.5253846E-1,1.9585109E-1,-6.538251E-2,4.663342E-3,-7.8628856E-1,7.050201E-2,-3.2768947E-1,2.9845476E-1,-1.2422447E-1,-3.7688597E-3,3.622314E-2,-1.3335907E-2,-3.016385E-1,2.0064504E-1,1.1388922E-1,3.2872E-2,-1.4725393E-1,-4.0647022E-2,9.351492E-2,-1.7698696E-1,-2.1380026E-2,7.203669E-2,8.452693E-3,-2.3407362E-2,-5.620656E-1,-2.6315173E-2,1.7321071E-1,1.8950997E-2,1.5715526E-1,3.2532226E-2],"categories":[],"categories_nodes":[],"categories_segments":[],"categories_sizes":[],"default_left":[0,0,0,0,0,0,0,0,0,0,0,0,0,0,0,0,0,0,0,0,0,0,0,0,0,0,0,0,0,0,0,0,0,0,0,0,0,0,0,0,0,0,0,0,0,0,0],"id":20,"left_children":[1,3,5,7,9,11,-1,13,15,17,19,21,23,25,27,29,31,33,35,37,39,41,43,-1,45,-1,-1,-1,-1,-1,-1,-1,-1,-1,-1,-1,-1,-1,-1,-1,-1,-1,-1,-1,-1,-1,-1],"loss_changes":[4.1765358E1,2.3410126E1,1.4547424E1,9.5147E0,1.9643856E1,8.63851E0,0E0,9.401624E0,8.3688755E0,1.3997688E1,1.7047735E1,9.647026E0,1.3698204E1,2.346651E1,2.3657623E1,6.7029123E0,5.557045E0,1.2424286E1,1.1289678E1,1.3991451E1,1.2218629E1,9.855013E0,1.4682098E1,0E0,1.04221325E1,0E0,0E0,0E0,0E0,0E0,0E0,0E0,0E0,0E0,0E0,0E0,0E0,0E0,0E0,0E0,0E0,0E0,0E0,0E0,0E0,0E0,0E0],"parents":[2147483647,0,0,1,1,2,2,3,3,4,4,5,5,7,7,8,8,9,9,10,10,11,11,12,12,13,13,14,14,15,15,16,16,17,17,18,18,19,19,20,20,21,21,22,22,24,24],"right_children":[2,4,6,8,10,12,-1,14,16,18,20,22,24,26,28,30,32,34,36,38,40,42,44,-1,46,-1,-1,-1,-1,-1,-1,-1,-1,-1,-1,-1,-1,-1,-1,-1,-1,-1,-1,-1,-1,-1,-1],"split_conditions":[1E0,7E0,2.2E1,1.2E1,2.282E1,1E1,6.2258893E-1,1E0,3E0,3E1,1E1,1.664E1,2E0,2.146E1,2.87E1,3.448E1,5E0,1.758E1,1E1,1.2E1,1E0,1.1E1,1.848E1,-3.2768947E-1,4E0,-1.2422447E-1,-3.7688597E-3,3.622314E-2,-1.3335907E-2,-3.016385E-1,2.0064504E-1,1.1388922E-1,3.2872E-2,-1.4725393E-1,-4.0647022E-2,9.351492E-2,-1.7698696E-1,-2.1380026E-2,7.203669E-2,8.452693E-3,-2.3407362E-2,-5.620656E-1,-2.6315173E-2,1.7321071E-1,1.8950997E-2,1.5715526E-1,3.2532226E-2],"split_indices":[9,3,3,13,1,3,0,4,3,0,13,1,13,1,1,1,3,1,3,3,11,2,1,0,2,0,0,0,0,0,0,0,0,0,0,0,0,0,0,0,0,0,0,0,0,0,0],"split_type":[0,0,0,0,0,0,0,0,0,0,0,0,0,0,0,0,0,0,0,0,0,0,0,0,0,0,0,0,0,0,0,0,0,0,0,0,0,0,0,0,0,0,0,0,0,0,0],"sum_hessian":[2.7713594E4,2.3489264E4,4.2243296E3,7.1484146E3,1.634085E4,4.221674E3,2.6554017E0,6.406773E3,7.416418E2,2.2856587E3,1.4055191E4,3.9716716E3,2.5000241E2,2.9276282E3,3.4791448E3,1.220233E1,7.2943945E2,2.1646812E3,1.2097742E2,7.772608E3,6.2825835E3,1.21915045E1,3.95948E3,6.32988E0,2.4367253E2,1.5262071E2,2.7750076E3,1.8470775E3,1.6320673E3,9.895971E0,2.306359E0,8.5763054E1,6.436764E2,1.0251831E2,2.0621628E3,1.05957565E2,1.5019852E1,7.626483E3,1.4612485E2,4.8921577E3,1.3904258E3,4.1110497E0,8.080455E0,5.5350094E1,3.90413E3,1.1065536E2,1.3301717E2],"tree_param":{"num_deleted":"0","num_feature":"17","num_nodes":"47","size_leaf_vector":"0"}},{"base_weights":[5.7151513E-3,-9.594143E-4,1.0466846E-1,-2.0626413E-2,2.8666688E-2,2.6234296E-1,7.5028114E-2,-1.0070439E-2,-1.7599198E-1,2.097805E-1,1.9065356E-2,4.8033294E-1,1.4380264E-1,9.351789E-3,1.3817936E-1,5.9002265E-3,-8.359603E-2,-2.707086E-1,-5.6098577E-2,-5.6904193E-2,2.8720826E-1,1.2658557E-1,1.1361146E-2,-4.9927226E-1,5.4949015E-1,-1.3107221E0,1.8871608E-1,-5.718062E-1,3.94501E-2,2.9815766E-1,7.853806E-2,1.9499274E-2,-4.745659E-3,-7.228553E-2,8.0206795E-3,-6.32294E-2,-1.880126E-1,-7.91762E-3,-4.1110373E-1,-7.694957E-2,1.0652515E-1,9.9413864E-2,-2.4887367E-1,1.0329992E-2,5.607583E-2,1.0389555E-2,-1.1655827E-2,1.3224262E-1,-5.5329996E-1,1.887844E-1,3.4254831E-3,-1.4488111E-1,-5.7032245E-1,-1.7782053E-1,8.262343E-2,6.30426E-2,-2.681328E-1,1.6643336E-1,1.3353375E-3,1.2230072E-1,-3.7263043E-2,-6.348354E-1,2.8668933E-2],"categories":[],"categories_nodes":[],"categories_segments":[],"categories_sizes":[],"default_left":[0,0,0,0,0,0,0,0,0,0,0,0,0,0,0,0,0,0,0,0,0,0,0,0,0,0,0,0,0,0,0,0,0,0,0,0,0,0,0,0,0,0,0,0,0,0,0,0,0,0,0,0,0,0,0,0,0,0,0,0,0,0,0],"id":21,"left_children":[1,3,5,7,9,11,13,15,17,19,21,23,25,27,29,31,33,35,37,39,41,43,45,47,49,51,53,55,57,59,61,-1,-1,-1,-1,-1,-1,-1,-1,-1,-1,-1,-1,-1,-1,-1,-1,-1,-1,-1,-1,-1,-1,-1,-1,-1,-1,-1,-1,-1,-1,-1,-1],"loss_changes":[1.8425571E1,1.5228704E1,8.218979E0,2.5760908E1,1.8129683E1,7.1287575E0,6.159005E0,1.7274094E1,1.1333052E1,1.0854645E1,8.202753E0,6.892456E0,1.21277485E1,1.277695E1,7.2005787E0,1.5514111E1,4.5582108E1,1.1776062E1,1.7232235E1,9.87142E0,2.0349693E1,3.674882E0,1.0801953E1,9.620918E0,3.9308014E0,1.805418E0,1.2173998E1,9.243378E0,1.2517946E1,9.544424E0,2.0859917E1,0E0,0E0,0E0,0E0,0E0,0E0,0E0,0E0,0E0,0E0,0E0,0E0,0E0,0E0,0E0,0E0,0E0,0E0,0E0,0E0,0E0,0E0,0E0,0E0,0E0,0E0,0E0,0E0,0E0,0E0,0E0,0E0],"parents":[2147483647,0,0,1,1,2,2,3,3,4,4,5,5,6,6,7,7,8,8,9,9,10,10,11,11,12,12,13,13,14,14,15,15,16,16,17,17,18,18,19,19,20,20,21,21,22,22,23,23,24,24,25,25,26,26,27,27,28,28,29,29,30,30],"right_children":[2,4,6,8,10,12,14,16,18,20,22,24,26,28,30,32,34,36,38,40,42,44,46,48,50,52,54,56,58,60,62,-1,-1,-1,-1,-1,-1,-1,-1,-1,-1,-1,-1,-1,-1,-1,-1,-1,-1,-1,-1,-1,-1,-1,-1,-1,-1,-1,-1,-1,-1,-1,-1],"split_conditions":[1E0,2.935E1,6E0,1E0,2.97E1,2.652E1,1E0,1E0,8E0,1E0,1E0,1.848E1,2.712E1,2.174E1,2.509E1,7E0,3E0,1E0,2.912E1,3E0,1E0,3.433E1,3.588E1,1.664E1,3E0,1E0,4E0,1.905E1,2.299E1,3E0,2.511E1,1.9499274E-2,-4.745659E-3,-7.228553E-2,8.0206795E-3,-6.32294E-2,-1.880126E-1,-7.91762E-3,-4.1110373E-1,-7.694957E-2,1.0652515E-1,9.9413864E-2,-2.4887367E-1,1.0329992E-2,5.607583E-2,1.0389555E-2,-1.1655827E-2,1.3224262E-1,-5.5329996E-1,1.887844E-1,3.4254831E-3,-1.4488111E-1,-5.7032245E-1,-1.7782053E-1,8.262343E-2,6.30426E-2,-2.681328E-1,1.6643336E-1,1.3353375E-3,1.2230072E-1,-3.7263043E-2,-6.348354E-1,2.8668933E-2],"split_indices":[10,1,3,5,1,1,4,14,3,8,16,1,1,1,1,3,14,14,1,15,5,1,1,1,14,4,3,1,1,16,1,0,0,0,0,0,0,0,0,0,0,0,0,0,0,0,0,0,0,0,0,0,0,0,0,0,0,0,0,0,0,0,0],"split_type":[0,0,0,0,0,0,0,0,0,0,0,0,0,0,0,0,0,0,0,0,0,0,0,0,0,0,0,0,0,0,0,0,0,0,0,0,0,0,0,0,0,0,0,0,0,0,0,0,0,0,0,0,0,0,0,0,0,0,0,0,0,0,0],"sum_hessian":[2.78965E4,2.6134664E4,1.7618363E3,1.5707618E4,1.0427045E4,2.775473E2,1.484289E3,1.4709293E4,9.9832574E2,5.238878E2,9.903157E3,9.6688934E1,1.8085837E2,7.2816095E2,7.5612805E2,1.2085165E4,2.6241274E3,5.5701904E2,4.4130667E2,1.1793815E2,4.0594965E2,6.6111945E2,9.242038E3,5.9657216E0,9.072321E1,4.5731554E0,1.7628522E2,3.4968483E1,6.9319244E2,2.0425291E2,5.518751E2,3.2473035E3,8.837861E3,1.081088E3,1.5430394E3,4.7810666E2,7.891242E1,4.3254962E2,8.7570305E0,7.9702415E1,3.823573E1,3.911809E2,1.4768746E1,2.6220517E2,3.989143E2,6.3155317E3,2.926506E3,3.9072022E0,2.0585194E0,7.885955E1,1.1863661E1,2.6605763E0,1.912579E0,1.70214E1,1.5926381E2,1.0300242E1,2.4668243E1,4.3140278E1,6.500522E2,1.6222585E2,4.2027077E1,3.2991223E0,5.48576E2],"tree_param":{"num_deleted":"0","num_feature":"17","num_nodes":"63","size_leaf_vector":"0"}},{"base_weights":[9.847906E-4,2.8484607E-2,-2.8552763E-2,-6.1206628E-2,3.8491238E-2,1.2883523E-2,-1.0267794E-1,1.6228785E-3,-2.4923323E-1,2.5232796E-2,9.5044136E-2,-3.21725E-2,5.7296667E-2,-1.2920973E-1,1.5645406E-1,-1.7711626E-2,1.8024883E0,-7.641372E-1,-1.4866164E-1,4.2221487E-2,-6.670477E-2,7.730664E-2,5.03796E-1,2.5565347E-1,-5.3095244E-2,-1.0861997E-1,6.720845E-2,-2.0588472E-1,-5.087855E-2,3.2290816E-1,-1.1604128E-1,-1.801393E-3,-2.493556E-1,1.17607825E-1,9.6215653E-1,-2.9261345E-1,4.5381222E-2,-1.00655176E-1,3.552079E-3,1.8016277E-2,-9.262947E-3,-6.603715E-2,1.1560206E-3,9.726807E-2,1.55205475E-2,5.3528585E-2,3.2617852E-1,5.2805964E-2,1.5496868E-1,-4.5673154E-2,-7.768428E-3,2.1027212E-1,-4.47451E-2,4.997573E-2,1.3046798E-2,-7.7663064E-2,5.2117575E-3,-1.9034162E-3,-7.206583E-2,4.0721712E-1,7.032824E-2,-1.0239909E-1,1.0842319E-1],"categories":[],"categories_nodes":[],"categories_segments":[],"categories_sizes":[],"default_left":[0,0,0,0,0,0,0,0,0,0,0,0,0,0,0,0,0,0,0,0,0,0,0,0,0,0,0,0,0,0,0,0,0,0,0,0,0,0,0,0,0,0,0,0,0,0,0,0,0,0,0,0,0,0,0,0,0,0,0,0,0,0,0],"id":22,"left_children":[1,3,5,7,9,11,13,15,17,19,21,23,25,27,29,31,33,35,37,39,41,43,45,47,49,51,53,55,57,59,61,-1,-1,-1,-1,-1,-1,-1,-1,-1,-1,-1,-1,-1,-1,-1,-1,-1,-1,-1,-1,-1,-1,-1,-1,-1,-1,-1,-1,-1,-1,-1,-1],"loss_changes":[2.2594051E1,1.2930679E1,4.1192787E1,1.708502E1,9.714693E0,1.721746E1,3.3081974E1,3.7809067E1,1.8643711E1,1.6402184E1,1.7803055E1,2.5735888E1,7.132798E0,2.6192299E1,2.03163E1,1.0227135E1,2.1595547E1,1.15461235E1,9.129256E0,1.1554695E1,1.7731754E1,1.488279E1,1.9201239E1,5.9265976E0,1.0736937E1,8.131056E0,9.631626E0,2.6083855E1,1.8206604E1,2.5110182E1,1.843888E1,0E0,0E0,0E0,0E0,0E0,0E0,0E0,0E0,0E0,0E0,0E0,0E0,0E0,0E0,0E0,0E0,0E0,0E0,0E0,0E0,0E0,0E0,0E0,0E0,0E0,0E0,0E0,0E0,0E0,0E0,0E0,0E0],"parents":[2147483647,0,0,1,1,2,2,3,3,4,4,5,5,6,6,7,7,8,8,9,9,10,10,11,11,12,12,13,13,14,14,15,15,16,16,17,17,18,18,19,19,20,20,21,21,22,22,23,23,24,24,25,25,26,26,27,27,28,28,29,29,30,30],"right_children":[2,4,6,8,10,12,14,16,18,20,22,24,26,28,30,32,34,36,38,40,42,44,46,48,50,52,54,56,58,60,62,-1,-1,-1,-1,-1,-1,-1,-1,-1,-1,-1,-1,-1,-1,-1,-1,-1,-1,-1,-1,-1,-1,-1,-1,-1,-1,-1,-1,-1,-1,-1,-1],"split_conditions":[1E0,5E0,3E0,3.288E1,3.33E1,1E0,3.487E1,3.261E1,2E0,1E0,5E0,2.061E1,1.975E1,1E1,1E0,3.246E1,3E0,4.324E1,3.684E1,1E0,2E0,6E0,3E0,1E0,2.532E1,3E0,2.4E1,1E0,1E0,3E0,1E1,-1.801393E-3,-2.493556E-1,1.17607825E-1,9.6215653E-1,-2.9261345E-1,4.5381222E-2,-1.00655176E-1,3.552079E-3,1.8016277E-2,-9.262947E-3,-6.603715E-2,1.1560206E-3,9.726807E-2,1.55205475E-2,5.3528585E-2,3.2617852E-1,5.2805964E-2,1.5496868E-1,-4.5673154E-2,-7.768428E-3,2.1027212E-1,-4.47451E-2,4.997573E-2,1.3046798E-2,-7.7663064E-2,5.2117575E-3,-1.9034162E-3,-7.206583E-2,4.0721712E-1,7.032824E-2,-1.0239909E-1,1.0842319E-1],"split_indices":[12,13,16,1,1,4,1,1,13,14,14,1,1,13,4,1,16,1,1,11,14,13,16,14,1,13,1,14,11,13,13,0,0,0,0,0,0,0,0,0,0,0,0,0,0,0,0,0,0,0,0,0,0,0,0,0,0,0,0,0,0,0,0],"split_type":[0,0,0,0,0,0,0,0,0,0,0,0,0,0,0,0,0,0,0,0,0,0,0,0,0,0,0,0,0,0,0,0,0,0,0,0,0,0,0,0,0,0,0,0,0,0,0,0,0,0,0,0,0,0,0,0,0,0,0,0,0,0,0],"sum_hessian":[2.7813688E4,1.4403703E4,1.3409984E4,1.4451798E3,1.2958523E4,8.602164E3,4.80782E3,1.0839626E3,3.6121713E2,1.0498636E4,2.4598875E3,4.2703135E3,4.3318506E3,4.3617354E3,4.4608414E2,1.0734282E3,1.0534407E1,5.794644E1,3.032707E2,8.861672E3,1.6369639E3,2.3587214E3,1.0116586E2,2.8862286E2,3.9816907E3,2.4363316E2,4.0882175E3,2.2033462E3,2.1583892E3,2.7680963E2,1.692745E2,1.0591924E3,1.4235826E1,5.8946533E0,4.639753E0,4.702855E1,1.0917895E1,1.3962706E2,1.6364363E2,7.12392E3,1.7377521E3,5.150149E2,1.121949E3,2.2025392E2,2.1384675E3,6.578624E1,3.5379627E1,2.2241336E2,6.620952E1,8.561904E2,3.1255002E3,1.08394575E1,2.327937E2,7.865871E2,3.3016304E3,1.7805557E3,4.2279062E2,1.748231E3,4.1015836E2,2.0680473E1,2.5612915E2,1.1520114E2,5.407336E1],"tree_param":{"num_deleted":"0","num_feature":"17","num_nodes":"63","size_leaf_vector":"0"}},{"base_weights":[7.006038E-3,-2.829549E-3,6.171174E-2,1.9523293E-2,-2.929607E-2,8.149844E-2,-3.459633E-2,-2.0965958E-1,2.4855012E-2,-5.3125996E-2,1.0377261E-2,1.2883054E-1,2.0657385E-2,-2.2336257E-1,4.3979246E-2,-2.6683065E-1,2.1957795E-1,3.2917593E-2,-1.0696932E-1,-2.6073124E-2,-8.778748E-2,6.57403E-2,-6.777441E-2,1.5890045E-1,5.4910783E-2,3.637211E-1,2.9917266E-3,-4.8297927E-1,7.909648E-2,1.3277939E-2,6.758167E-1,-4.268406E-2,-2.629554E-1,3.2291114E-1,-1.3645299E-1,1.3292902E-2,-6.783866E-3,-6.319052E-2,7.2705722E-3,9.6421786E-2,-9.844806E-3,-8.44989E-2,-2.1047546E-2,9.529461E-4,4.7271468E-2,-2.5929986E-2,2.531188E-1,2.3163484E-2,7.1279235E-2,2.24941E-2,-3.4939256E-1,1.2798536E-1,3.6392808E-2,2.585747E-2,-1.5374887E-2,-3.179231E-2,-2.268365E-1,-6.2415195E-1,4.5293704E-2,1.9284483E-2,-3.350778E-2,3.5316607E-1,-1.6579288E-1],"categories":[],"categories_nodes":[],"categories_segments":[],"categories_sizes":[],"default_left":[0,0,0,0,0,0,0,0,0,0,0,0,0,0,0,0,0,0,0,0,0,0,0,0,0,0,0,0,0,0,0,0,0,0,0,0,0,0,0,0,0,0,0,0,0,0,0,0,0,0,0,0,0,0,0,0,0,0,0,0,0,0,0],"id":23,"left_children":[1,3,5,7,9,11,13,15,17,19,21,23,25,27,29,31,33,35,37,39,41,43,45,47,49,51,53,55,57,59,61,-1,-1,-1,-1,-1,-1,-1,-1,-1,-1,-1,-1,-1,-1,-1,-1,-1,-1,-1,-1,-1,-1,-1,-1,-1,-1,-1,-1,-1,-1,-1,-1],"loss_changes":[1.4874079E1,1.3862841E1,8.030596E0,1.5528347E1,1.0143937E1,1.0061991E1,1.0669799E1,7.1488304E0,1.3199549E1,6.283144E0,1.7428009E1,4.360195E0,9.274155E0,1.6637983E1,9.851063E0,1.9270922E1,2.0429718E1,7.403102E0,9.741487E0,8.834737E0,1.00215435E1,1.3544996E1,2.8480968E1,8.960247E0,1.4035835E1,1.090869E0,6.577478E0,1.1648516E1,1.5605375E1,3.1034024E0,1.5146324E1,0E0,0E0,0E0,0E0,0E0,0E0,0E0,0E0,0E0,0E0,0E0,0E0,0E0,0E0,0E0,0E0,0E0,0E0,0E0,0E0,0E0,0E0,0E0,0E0,0E0,0E0,0E0,0E0,0E0,0E0,0E0,0E0],"parents":[2147483647,0,0,1,1,2,2,3,3,4,4,5,5,6,6,7,7,8,8,9,9,10,10,11,11,12,12,13,13,14,14,15,15,16,16,17,17,18,18,19,19,20,20,21,21,22,22,23,23,24,24,25,25,26,26,27,27,28,28,29,29,30,30],"right_children":[2,4,6,8,10,12,14,16,18,20,22,24,26,28,30,32,34,36,38,40,42,44,46,48,50,52,54,56,58,60,62,-1,-1,-1,-1,-1,-1,-1,-1,-1,-1,-1,-1,-1,-1,-1,-1,-1,-1,-1,-1,-1,-1,-1,-1,-1,-1,-1,-1,-1,-1,-1,-1],"split_conditions":[1E0,1E0,2.5E1,2E0,1E0,9E0,7E0,8E0,1E0,3E0,4E0,5E0,1E0,2.9E1,3E0,2E0,4E0,1E0,3E0,3E0,6E0,9E0,4E0,1E0,4E0,1.5E1,1E0,1E0,2.6E1,1.6E1,1E0,-4.268406E-2,-2.629554E-1,3.2291114E-1,-1.3645299E-1,1.3292902E-2,-6.783866E-3,-6.319052E-2,7.2705722E-3,9.6421786E-2,-9.844806E-3,-8.44989E-2,-2.1047546E-2,9.529461E-4,4.7271468E-2,-2.5929986E-2,2.531188E-1,2.3163484E-2,7.1279235E-2,2.24941E-2,-3.4939256E-1,1.2798536E-1,3.6392808E-2,2.585747E-2,-1.5374887E-2,-3.179231E-2,-2.268365E-1,-6.2415195E-1,4.5293704E-2,1.9284483E-2,-3.350778E-2,3.5316607E-1,-1.6579288E-1],"split_indices":[9,12,2,13,0,13,13,2,5,16,2,2,16,0,16,2,0,7,16,13,13,0,16,4,16,0,12,0,2,0,4,0,0,0,0,0,0,0,0,0,0,0,0,0,0,0,0,0,0,0,0,0,0,0,0,0,0,0,0,0,0,0,0],"split_type":[0,0,0,0,0,0,0,0,0,0,0,0,0,0,0,0,0,0,0,0,0,0,0,0,0,0,0,0,0,0,0,0,0,0,0,0,0,0,0,0,0,0,0,0,0,0,0,0,0,0,0,0,0,0,0,0,0,0,0,0,0,0,0],"sum_hessian":[2.764244E4,2.3430752E4,4.2116875E3,1.2702694E4,1.0728058E4,3.493993E3,7.176945E2,2.8792612E2,1.2414769E4,6.7020864E3,4.0259712E3,1.9645377E3,1.5294553E3,2.103991E2,5.072954E2,2.54418E2,3.350812E1,1.1699933E4,7.1483575E2,3.765169E3,2.9369175E3,2.35666E3,1.6693113E3,1.3956497E3,5.688881E2,7.394124E1,1.455514E3,1.12896866E2,9.7502235E1,4.8476163E2,2.2533804E1,2.1228462E2,4.213337E1,1.4496108E1,1.9012014E1,9.708446E3,1.9914863E3,3.9898734E2,3.158484E2,7.0784645E1,3.6943843E3,2.4354504E2,2.6933723E3,1.4023119E3,9.543481E2,1.6367122E3,3.2599026E1,6.857795E2,7.098701E2,5.6060114E2,8.287006E0,5.8105236E1,1.5836005E1,5.741881E2,8.813259E2,4.801379E1,6.488307E1,2.2406976E0,9.5261536E1,3.446051E2,1.4015651E2,1.6031965E1,6.5018377E0],"tree_param":{"num_deleted":"0","num_feature":"17","num_nodes":"63","size_leaf_vector":"0"}},{"base_weights":[-3.3980375E-4,7.4140094E-3,-4.9370818E-2,-4.812461E-2,1.840844E-2,-8.397154E-2,6.16431E-2,-3.665087E-2,-1.7952979E-1,3.0185718E-2,-1.4784403E-2,2.8067635E-2,-1.10533796E-1,3.259009E-1,2.7427949E-2,-7.3337294E-2,3.121215E-3,-1.4253104E-1,-6.870695E-1,4.9135003E-2,-4.1838244E-2,-7.801947E-2,6.456298E-2,-1.6487996E-1,8.058405E-2,-8.6118646E-2,-3.6197227E-1,-1.9455983E-1,4.605822E-1,4.5387772E-1,2.181724E-2,-5.8092207E-2,-8.45764E-3,1.7890614E-2,-4.8670847E-2,-6.169138E-2,1.24392055E-1,2.4109386E-1,-3.348128E-1,9.5207235E-3,3.826369E-2,-3.4059312E-2,6.0131066E-3,-7.3787875E-2,-1.6099691E-2,2.113158E-2,-1.8462203E-1,1.5571937E-1,-9.4139405E-2,-1.103623E-2,4.7112193E-2,-3.204935E-2,7.275182E-2,-5.151461E-2,-2.0770685E-1,2.1729717E-1,-9.534116E-2,-4.6236645E-2,1.6044597E-1,-2.7924E-1,9.037462E-3],"categories":[],"categories_nodes":[],"categories_segments":[],"categories_sizes":[],"default_left":[0,0,0,0,0,0,0,0,0,0,0,0,0,0,0,0,0,0,0,0,0,0,0,0,0,0,0,0,0,0,0,0,0,0,0,0,0,0,0,0,0,0,0,0,0,0,0,0,0,0,0,0,0,0,0,0,0,0,0,0,0],"id":24,"left_children":[1,3,5,7,9,11,13,15,17,19,21,23,25,27,29,31,33,35,37,39,41,43,45,47,49,51,53,55,57,-1,59,-1,-1,-1,-1,-1,-1,-1,-1,-1,-1,-1,-1,-1,-1,-1,-1,-1,-1,-1,-1,-1,-1,-1,-1,-1,-1,-1,-1,-1,-1],"loss_changes":[1.04853E1,1.4542134E1,1.4470899E1,5.9270067E0,7.771799E0,8.548826E0,8.087308E0,5.2832036E0,5.8318853E0,2.0028664E1,2.6131145E1,5.597661E0,1.4219822E1,7.2784233E0,6.583787E0,1.0223837E1,1.6253746E1,1.0478451E1,1.4449938E1,1.5845749E1,1.3564558E1,1.1840126E1,9.27167E0,1.2205559E1,3.899293E0,1.4437413E1,1.2776476E1,2.697401E0,3.8139458E0,0E0,6.295234E0,0E0,0E0,0E0,0E0,0E0,0E0,0E0,0E0,0E0,0E0,0E0,0E0,0E0,0E0,0E0,0E0,0E0,0E0,0E0,0E0,0E0,0E0,0E0,0E0,0E0,0E0,0E0,0E0,0E0,0E0],"parents":[2147483647,0,0,1,1,2,2,3,3,4,4,5,5,6,6,7,7,8,8,9,9,10,10,11,11,12,12,13,13,14,14,15,15,16,16,17,17,18,18,19,19,20,20,21,21,22,22,23,23,24,24,25,25,26,26,27,27,28,28,30,30],"right_children":[2,4,6,8,10,12,14,16,18,20,22,24,26,28,30,32,34,36,38,40,42,44,46,48,50,52,54,56,58,-1,60,-1,-1,-1,-1,-1,-1,-1,-1,-1,-1,-1,-1,-1,-1,-1,-1,-1,-1,-1,-1,-1,-1,-1,-1,-1,-1,-1,-1,-1,-1],"split_conditions":[1E0,6E0,1E0,1E0,2E0,2E0,1E0,1E0,3E1,1E0,1E0,1E0,7E0,2.604E1,1E0,2.511E1,8E0,1E0,1E0,3E0,2.832E1,3E0,5.453E1,2.174E1,2.575E1,4E0,2.832E1,4E0,8E0,4.5387772E-1,1.937E1,-5.8092207E-2,-8.45764E-3,1.7890614E-2,-4.8670847E-2,-6.169138E-2,1.24392055E-1,2.4109386E-1,-3.348128E-1,9.5207235E-3,3.826369E-2,-3.4059312E-2,6.0131066E-3,-7.3787875E-2,-1.6099691E-2,2.113158E-2,-1.8462203E-1,1.5571937E-1,-9.4139405E-2,-1.103623E-2,4.7112193E-2,-3.204935E-2,7.275182E-2,-5.151461E-2,-2.0770685E-1,2.1729717E-1,-9.534116E-2,-4.6236645E-2,1.6044597E-1,-2.7924E-1,9.037462E-3],"split_indices":[11,13,15,5,15,16,16,4,2,7,2,2,2,1,13,1,2,15,4,0,1,15,1,1,1,2,1,2,13,0,1,0,0,0,0,0,0,0,0,0,0,0,0,0,0,0,0,0,0,0,0,0,0,0,0,0,0,0,0,0,0],"split_type":[0,0,0,0,0,0,0,0,0,0,0,0,0,0,0,0,0,0,0,0,0,0,0,0,0,0,0,0,0,0,0,0,0,0,0,0,0,0,0,0,0,0,0,0,0,0,0,0,0,0,0,0,0,0,0,0,0,0,0,0,0],"sum_hessian":[2.7578059E4,2.3813084E4,3.764976E3,3.934498E3,1.9878586E4,2.870534E3,8.9444196E2,3.6197185E3,3.1477954E2,1.4672626E4,5.205959E3,5.5011224E2,2.3204216E3,1.0155621E2,7.9288574E2,1.8824613E3,1.7372572E3,2.945856E2,2.0193943E1,1.1616641E4,3.0559854E3,2.8971345E3,2.3088245E3,1.1723739E2,4.3287485E2,2.1162705E3,2.0415132E2,2.0786093E1,8.077012E1,1.9725832E0,7.909132E2,5.1276074E2,1.3697006E3,1.295227E3,4.4203015E2,2.6518127E2,2.9404303E1,4.3173585E0,1.5876584E1,9.508186E3,2.108455E3,1.4153772E3,1.6406083E3,3.657667E2,2.531368E3,2.2899336E3,1.8890936E1,2.0517931E1,9.671946E1,1.709546E2,2.6192023E2,1.9914298E3,1.2484066E2,1.3051303E2,7.363829E1,1.8814218E0,1.890467E1,8.58752E0,7.21826E1,5.877797E0,7.850354E2],"tree_param":{"num_deleted":"0","num_feature":"17","num_nodes":"61","size_leaf_vector":"0"}},{"base_weights":[-2.9973668E-4,-7.3850784E-3,5.468779E-2,-1.9880021E-2,1.4716103E-2,5.9949316E-2,-9.60754E-1,-2.322016E-2,9.052616E-2,4.6744976E-2,-2.5974862E-2,2.0814E-2,2.0730717E-1,-3.851115E-1,-1.4052013E0,-2.1688147E-2,-5.5771565E-1,7.143333E-2,1.2428774E0,3.289127E-2,2.5648266E-1,-2.432775E-1,-1.1208374E-2,1.8415539E-1,-9.310754E-3,3.4723705E-1,7.32562E-2,-3.265E-1,3.015811E-1,-4.7225407E-1,-4.404021E-2,-4.51116E-3,-2.7615229E-2,-3.507068E-1,-1.8836666E-2,-1.1870551E-2,5.7329077E-2,1.8241835E-1,4.8566663E-1,2.4036704E-2,-2.3420375E-2,2.1592481E-1,4.5682397E-2,-1.1802228E-1,8.944808E-2,6.6418205E-3,-3.110755E-2,1.0059027E-1,-5.580275E-2,-1.3803628E-2,5.350974E-2,4.7339085E-2,1.461376E-1,2.6992938E-2,-3.4560728E-1,2.930583E-1,-3.6457595E-1],"categories":[],"categories_nodes":[],"categories_segments":[],"categories_sizes":[],"default_left":[0,0,0,0,0,0,0,0,0,0,0,0,0,0,0,0,0,0,0,0,0,0,0,0,0,0,0,0,0,0,0,0,0,0,0,0,0,0,0,0,0,0,0,0,0,0,0,0,0,0,0,0,0,0,0,0,0],"id":25,"left_children":[1,3,5,7,9,11,13,15,17,19,21,23,25,27,29,31,33,35,37,39,41,43,45,47,49,51,53,-1,55,-1,-1,-1,-1,-1,-1,-1,-1,-1,-1,-1,-1,-1,-1,-1,-1,-1,-1,-1,-1,-1,-1,-1,-1,-1,-1,-1,-1],"loss_changes":[1.0796043E1,6.779065E0,1.6956774E1,5.7851815E0,1.1556373E1,1.814776E1,3.6452875E0,1.2452728E1,1.0047436E1,1.4407905E1,1.2529802E1,1.2245291E1,1.2362444E1,4.4362044E0,1.6521664E0,7.102439E0,1.3077369E1,6.0413747E0,7.933941E-1,2.4403011E1,1.4724039E1,2.0314362E1,1.1284644E1,2.1741951E1,1.4484867E1,8.47892E0,7.039735E0,0E0,6.397767E0,0E0,0E0,0E0,0E0,0E0,0E0,0E0,0E0,0E0,0E0,0E0,0E0,0E0,0E0,0E0,0E0,0E0,0E0,0E0,0E0,0E0,0E0,0E0,0E0,0E0,0E0,0E0,0E0],"parents":[2147483647,0,0,1,1,2,2,3,3,4,4,5,5,6,6,7,7,8,8,9,9,10,10,11,11,12,12,13,13,14,14,15,15,16,16,17,17,18,18,19,19,20,20,21,21,22,22,23,23,24,24,25,25,26,26,28,28],"right_children":[2,4,6,8,10,12,14,16,18,20,22,24,26,28,30,32,34,36,38,40,42,44,46,48,50,52,54,-1,56,-1,-1,-1,-1,-1,-1,-1,-1,-1,-1,-1,-1,-1,-1,-1,-1,-1,-1,-1,-1,-1,-1,-1,-1,-1,-1,-1,-1],"split_conditions":[3E0,1E0,5.453E1,4.17E1,1.3E1,1E0,1E0,4.125E1,2E0,3E1,1.5E1,4E0,1E0,1E0,1E0,1E0,1E0,1E0,1E0,3E0,2.216E1,1.5E1,1.8E1,4E0,1.4E1,2.929E1,4.858E1,-3.265E-1,1E0,-4.7225407E-1,-4.404021E-2,-4.51116E-3,-2.7615229E-2,-3.507068E-1,-1.8836666E-2,-1.1870551E-2,5.7329077E-2,1.8241835E-1,4.8566663E-1,2.4036704E-2,-2.3420375E-2,2.1592481E-1,4.5682397E-2,-1.1802228E-1,8.944808E-2,6.6418205E-3,-3.110755E-2,1.0059027E-1,-5.580275E-2,-1.3803628E-2,5.350974E-2,4.7339085E-2,1.461376E-1,2.6992938E-2,-3.4560728E-1,2.930583E-1,-3.6457595E-1],"split_indices":[14,2,1,1,2,9,2,1,14,0,2,14,4,7,6,14,4,4,4,0,1,0,0,2,0,1,1,0,4,0,0,0,0,0,0,0,0,0,0,0,0,0,0,0,0,0,0,0,0,0,0,0,0,0,0,0,0],"split_type":[0,0,0,0,0,0,0,0,0,0,0,0,0,0,0,0,0,0,0,0,0,0,0,0,0,0,0,0,0,0,0,0,0,0,0,0,0,0,0,0,0,0,0,0,0,0,0,0,0,0,0,0,0,0,0,0,0],"sum_hessian":[2.770816E4,2.4546164E4,3.1619963E3,1.568099E4,8.865175E3,3.146633E3,1.5363365E1,1.5221287E4,4.5970282E2,4.9604956E3,3.9046787E3,2.4872185E3,6.5941455E2,7.5069523E0,